tree
version=v4
num_class=1
num_tree_per_iteration=1
label_index=0
max_feature_idx=64
objective=binary sigmoid:1
feature_names=field_size is_handicap race_type_encoded race_class_num is_grade1 is_grade2 is_grade3 track_direction_encoded distance_band going_bucket or_current rpr_current ts_current or_best_last3 or_best_last5 rpr_best_last3 rpr_best_last5 or_rpr_diff or_trend_last5 age_at_race days_since_last_run career_runs career_wins career_places chase_starts hurdle_starts dnf_rate_last5 avg_btn_last3 btn_trend_last5 headgear_changed first_time_headgear win_rate_overall place_rate_overall runs_last_90d runs_last_365d win_rate_going_bucket win_rate_dist_band win_rate_course win_rate_track_direction place_rate_track_direction trainer_winpct_14d trainer_winpct_30d trainer_winpct_90d jockey_winpct_14d jockey_winpct_30d jockey_winpct_90d trainer_festival_winpct jockey_festival_winpct combo_winpct sire_cheltenham_winpct sire_going_winpct sire_dist_winpct sp_rank weight_carried weight_vs_field_avg course_dist_winner days_since_last_win class_change market_implied_prob market_rank pre_price_move market_confidence dominant_style_code pct_trouble pct_jumping_issues
feature_infos=[2:40] none [0:2] [1:5] [0:1] [0:1] [0:1] [0:1] [0:3] [0:3] [50:180] [2:184] [1:172] [70:180] [70:180] [2:184] [2:184] [-50:127] [-30:42] [3:16] [1:1583] [0:19] [0:11] [0:14] [0:16] [0:15] [0:1] [0:212.75] [-182.25:244.25] [0:1] [0:1] [0:1] [0:1] [0:4] [0:8] [0:1] [0:1] [0:1] [0:1] [0:1] [0:1] [0:0.75] [0:1] [0:1] [0:0.875] [0:0.80000000000000004] [0:0.66666666666666663] [0:0.66666666666666663] [0:0.80000000000000004] [0:0.59999999999999998] [0:1] [0:1] [1:39] [130:177] [-23.076923076923066:23.466666666666669] [0:1] [2:1570] [-3:4] [0.001:1] [1:29] [0.0011046794220317263:43.726153846153849] [2.9745086371023644:15.761914119557312] [0:4] [0:1] [0:1]
tree_sizes=3334 3365 3395 3390 3424 3385 3397 3424 3418 3422 3424 3427 3417 3428 3420 3420 3410 3427 3430 3455 3428 3439 3448 3462 3424 3444 3459 3436 3433 3443 3415 3449 3441 3416 3444 3409 3445 3441 3436 3434 3427 3425 3461 3420 3446 3433 3444 3437 3428 3441 3444 3433

Tree=0
num_leaves=31
num_cat=0
split_feature=52 52 58 52 53 48 50 58 10 31 58 58 42 58 48 47 54 15 40 58 12 62 9 45 46 24 50 44 42 46
split_gain=1701.44 267.424 149.299 137.55 107.554 45.6084 45.5335 40.3892 32.2507 32.0236 30.0995 29.2333 26.8201 28.9529 32.7831 25.1861 27.4065 25.1664 24.781 24.3602 23.9563 23.5093 25.3668 23.406 23.3423 24.7844 22.9908 20.9076 18.8925 23.0664
threshold=2.5000000000000004 1.5000000000000002 0.51414221517314318 5.5000000000000009 163.50000000000003 0.05594679186228483 0.12294197031039138 0.17286097614906984 141.50000000000003 0.43650793650793657 0.28368851403553957 0.13486182800979227 0.20809925093632961 0.34071649137470689 0.22276159654800434 0.25916924436588601 9.8191721132897545 119.50000000000001 0.11834733893557424 0.30534422316700233 111.50000000000001 1.0000000180025095e-35 1.5000000000000002 0.44543650793650796 0.11499786702419405 1.0000000180025095e-35 0.12532722513089009 0.20942982456140355 0.17669683257918556 0.11407808010816294
decision_type=2 2 10 2 2 10 10 8 10 8 10 10 10 10 8 8 2 8 10 8 10 10 2 10 10 10 8 10 8 8
left_child=1 2 4 11 6 19 7 -1 20 15 28 -2 13 -9 -15 16 18 -14 -7 -6 24 22 -11 27 25 -8 -21 -19 -3 -30
right_child=3 10 -4 -5 5 9 8 12 -10 21 -12 -13 17 14 -16 -17 -18 23 -20 26 -22 -23 -24 -25 -26 -27 -28 -29 29 -31
leaf_value=-2.38286746903053 -2.3734192331595598 -2.3291379026859258 -1.951071346157184 -2.409035910381617 -2.3953231264211072 -1.9578041339358747 -2.2476442616954282 -2.2767359304883286 -2.0542129301633678 -2.1895082162053776 -2.1910952304674978 -2.3088662104159239 -2.3604472857274907 -1.9896008463520367 -2.2853884111912297 -2.2927471243810591 -2.2853884111912297 -2.1642953116568968 -2.1620723115257667 -2.2747417623208377 -2.3924168063633058 -1.9593751177509025 -2.0133496331100709 -2.2965082444558607 -2.0361850049927956 -2.0555072427397167 -2.0978890949737758 -1.9848054182566643 -2.2282542985585381 -2.3059806950146209
leaf_weight=6.0213602259755126 304.11779115349054 53.019249781966209 6.0213602259755126 713.33568806946278 1.720388635993001 2.8933808878064164 9.6185364648699778 38.943342760205269 4.4573705568909636 3.8317746892571432 5.7867617756128302 18.611477062106133 1.5639896690845461 1.9549870863556855 1.7985881194472311 2.6587824374437341 1.7985881194472311 4.6137695237994194 3.0497798547148705 3.6753757223486909 1.5639896690845478 5.1611659079790106 4.3791710734367371 1.954987086355686 2.1895855367183676 2.0331865698099127 3.67537572234869 2.5023834705352783 12.746515803039072 38.004948958754539
leaf_count=77 3889 678 77 9122 22 37 123 498 57 49 74 238 20 25 23 34 23 59 39 47 20 66 56 25 28 26 47 32 163 486
internal_value=-2.36959 -2.24581 -2.19361 -2.39678 -2.20665 -2.13057 -2.23819 -2.26012 -2.17266 -2.09417 -2.30208 -2.3697 -2.24626 -2.26395 -2.13133 -2.15998 -2.11438 -2.17521 -2.06263 -2.22595 -2.20693 -2.043 -2.09556 -2.14328 -2.18597 -2.21412 -2.18632 -2.10118 -2.30826 -2.28646
internal_weight=1263.7 227.639 118.081 1036.06 112.06 32.8438 79.2161 59.3534 19.8627 23.7726 109.557 322.729 53.332 42.6969 3.75358 10.4005 7.74175 10.6351 5.94316 9.07114 15.4053 13.3721 8.21095 9.07114 13.8413 11.6517 7.35075 7.11615 103.771 50.7515
internal_count=16160 2911 1510 13249 1433 420 1013 759 254 304 1401 4127 682 546 48 133 99 136 76 116 197 171 105 116 177 149 94 91 1327 649
is_linear=0
shrinkage=1


Tree=1
num_leaves=31
num_cat=0
split_feature=52 52 52 0 48 53 20 51 61 10 53 24 48 47 47 20 27 47 51 52 46 32 42 61 54 60 0 32 48 56
split_gain=1404.88 171.999 131.369 90.5323 75.0226 40.0111 43.2748 36.1928 37.2629 29.3137 25.9968 26.6763 23.065 22.2308 21.7512 21.3179 31.2965 22.6057 43.9514 20.0927 20.011 22.9966 18.6554 19.5715 18.2404 17.5774 18.0594 18.3607 20.0336 17.4669
threshold=2.5000000000000004 1.5000000000000002 5.5000000000000009 12.500000000000002 0.28470111448834862 153.50000000000003 213.50000000000003 0.17677696078431376 12.229505131787429 156.50000000000003 145.50000000000003 1.0000000180025095e-35 0.19063283208020051 1.0000000180025095e-35 0.12660256410256412 38.500000000000007 13.958333333333334 0.14495798319327732 0.09454139178548629 3.5000000000000004 0.044949494949494954 0.72077922077922085 0.16824413976116767 10.219674862121439 2.6496163682864453 1.4768924600912203 7.5000000000000009 0.72077922077922085 0.24929378531073451 225.50000000000003
decision_type=2 2 2 2 10 2 8 8 8 8 2 8 8 10 10 8 10 10 10 2 8 8 8 8 2 10 2 10 10 8
left_child=1 3 19 4 5 6 12 13 -9 10 11 -5 -1 -7 20 -15 17 18 -17 -2 24 -22 -3 -24 -10 26 29 -28 -29 -25
right_child=2 22 -4 9 -6 7 -8 8 14 -11 -12 -13 -14 15 -16 16 -18 -19 -20 -21 21 -23 23 25 -26 -27 27 28 -30 -31
leaf_value=0.27859025564193624 0.017618254018555841 0.03969578767034216 -0.03863412160312097 0.055784617836137897 0.25838323720317186 0.094766777338658015 -0.012870040898388328 0.052242511207733038 0.42024884958326647 0.14646823488898009 0.04890886784459135 0.29891626784277325 0.059632035994688318 0.28967404296647553 0.37790676822836922 0.12601589920733608 -0.014377962516662507 0.090719063607481124 0.37885655055860745 -0.008829325322637957 0.05010219096173351 0.22882350446180288 -0.039626452534865908 0.020649172416208991 0.20656703585285965 0.20225558659601181 0.04481462804854907 0.068719118709938798 0.24973121575979773 0.14928804790800529
leaf_weight=2.6929211989045116 107.85765588283539 55.498204089701176 690.37371252477169 2.2547796443104735 20.496308952569962 16.63114432990551 7.082363799214364 2.7864708229899433 2.1008061692118654 16.312107637524605 30.68972060084343 2.2579934597015381 2.1734696105122566 3.3262934759259251 2.7632074430584899 3.8505226820707303 2.4236790984868994 4.0877158865332603 3.1045821830630302 214.89488251507282 2.3629798144102088 7.5535283908247957 3.2433156892657271 3.2979521006345749 1.9037335515022276 3.1084407642483702 31.032361999154091 4.0375957265496245 2.4598017856478691 13.203641638159754
leaf_count=30 1374 683 9122 27 209 187 83 32 23 177 355 26 25 35 28 42 27 43 33 2753 26 82 39 39 20 37 371 48 29 155
internal_value=-1.49264e-05 0.105447 -0.0263236 0.143403 0.174999 0.148642 0.0660052 0.167309 0.221498 0.0910604 0.0653855 0.177437 0.180797 0.135742 0.249766 0.176322 0.148324 0.184034 0.238878 8.94416e-06 0.224331 0.186236 0.0606217 0.0798547 0.318666 0.0866366 0.079985 0.0608172 0.137247 0.123579
internal_weight=1265.86 252.736 1013.13 136.854 85.3397 64.8434 11.9488 52.8947 19.4707 51.5146 35.2025 4.51277 4.86639 33.4239 16.6843 16.7928 13.4665 11.0428 6.9551 322.753 13.921 9.91651 115.881 60.3831 4.00454 57.1398 54.0314 37.5298 6.4974 16.5016
internal_count=16160 2911 13249 1510 925 716 138 578 211 585 408 53 55 367 179 180 145 118 75 4127 151 108 1401 718 43 679 642 448 77 194
is_linear=0
shrinkage=0.05


Tree=2
num_leaves=31
num_cat=0
split_feature=61 48 59 0 61 59 27 41 45 48 0 36 0 64 28 60 56 15 48 27 10 61 49 54 62 3 18 51 10 42
split_gain=279.359 137.149 110.541 106.377 52.1338 43.3549 37.2254 35.7839 35.1999 33.3158 29.1762 28.175 26.6243 27.419 21.8981 21.181 19.7877 23.1571 23.8761 19.0312 21.4444 18.0548 17.9939 17.6893 20.5352 17.6708 17.5189 16.8983 16.4428 15.906
threshold=10.898842645491571 0.3373983739837399 2.5000000000000004 9.5000000000000018 9.8784819638790413 8.5000000000000018 1.0125000000000002 0.14729990356798459 0.27466150870406197 0.076018161805173387 4.5000000000000009 0.61250000000000016 6.5000000000000009 0.94444444444444453 -1.7696428571428571 1.163726851851852 80.500000000000014 123.50000000000001 0.35805860805860812 3.7583333333333342 119.50000000000001 10.288852593449812 0.53571428571428581 1.5577777777777728 1.0000000180025095e-35 2.5000000000000004 -4.5 0.11031730390224677 115.50000000000001 0.081281281281281301
decision_type=10 10 10 2 8 10 8 10 10 10 2 10 2 10 10 10 10 10 10 8 10 10 8 2 10 8 8 10 8 10
left_child=1 3 7 4 -1 9 14 12 -3 21 -8 15 -2 19 -6 -10 17 22 -19 29 -21 -5 -9 26 -25 -4 -12 -20 -23 -14
right_child=2 8 25 5 6 -7 10 16 11 -11 23 -13 13 -15 -16 -17 -18 18 27 20 -22 28 -24 24 -26 -27 -28 -29 -30 -31
leaf_value=-0.041091832489257567 0.15753018658452755 0.0080910908386384872 0.0077971635713145722 -0.022716007969925144 0.057277333180919182 -0.042856731951832067 0.084754450821623722 0.24163981268938495 0.11340837127534678 0.003743996431863795 0.15596507632073209 0.26255159890579499 0.21568279132272894 0.20055765836357994 0.17923908316405635 -0.05479039452356177 0.23853048773630126 0.0046207626514114617 0.254350224489655 0.084253213105795158 -0.013948686304615385 0.13031839728652184 0.10001118445705018 0.068195396777180645 0.0077357958839812035 0.097609283584977835 0.0028562153780979692 0.0606623314867068 0.0059230360677986951 0.055760409909013535
leaf_weight=33.611145064234734 10.017108060419558 10.254172958433626 47.195445612072945 477.84596968442202 11.107309781014921 161.10250873118639 16.03833594173193 6.1943743154406592 21.787443853914745 190.40254238247871 1.8942948728799818 2.9586363136768332 2.7577511891722706 3.3134706020355216 5.5042793229222289 2.0476322919130316 6.2517711743712416 4.9509881511330587 2.4019272997975349 9.6148397028446215 13.179580338299273 3.2358456179499653 3.5153992027044305 28.344837173819542 27.838132791221142 6.1957743614912024 136.10854863375425 2.1200590580701828 14.836867168545721 3.5645222142338753
leaf_count=446 96 123 604 6317 133 2193 184 59 226 2419 23 24 29 36 55 26 58 53 21 101 148 39 36 338 337 69 1721 20 189 37
internal_value=-0.000116542 -0.00776012 0.0720452 -0.0109247 0.0170226 -0.019514 0.0256337 0.114381 0.0868727 -0.0140347 0.0199399 0.117023 0.0862798 0.0642718 0.0976896 0.0989587 0.161278 0.136102 0.0804833 0.0487625 0.0274735 -0.0208606 0.190364 0.0145867 0.0382382 0.0182194 0.00495786 0.163543 0.0281955 0.125518
internal_weight=1266.19 1144.92 121.273 1107.87 260.447 847.424 226.836 67.8818 37.0479 686.321 210.224 26.7937 42.4473 32.4302 16.6116 23.8351 25.4345 19.1827 9.47297 29.1167 22.7944 495.919 9.70977 194.186 56.183 53.3912 138.003 4.52199 18.0727 6.32227
internal_count=16160 14793 1367 14394 3237 11157 2791 694 399 8964 2603 276 447 351 188 252 247 189 94 315 249 6545 95 2419 675 673 1744 41 228 66
is_linear=0
shrinkage=0.05


Tree=3
num_leaves=31
num_cat=0
split_feature=52 52 52 0 53 43 61 10 53 46 44 52 52 49 44 24 18 49 7 48 49 47 20 0 48 45 51 42 61 10
split_gain=1096.24 121.618 105.085 47.378 29.8161 25.5464 20.4094 17.6106 17.8307 17.3152 17.0126 16.9226 15.0605 14.8427 14.8296 14.6255 14.4051 14.2104 13.3828 13.0628 13.1114 13.0164 18.1466 15.0031 15.5069 20.1896 12.7683 12.6368 14.4711 12.5158
threshold=2.5000000000000004 5.5000000000000009 1.5000000000000002 12.500000000000002 163.50000000000003 0.46060606060606063 13.120283450968257 156.50000000000003 145.50000000000003 0.13922518159806299 0.69047619047619058 3.5000000000000004 11.500000000000002 0.15339366515837108 0.23669467787114848 1.0000000180025095e-35 -0.49285714285714005 0.10035971223021585 1.0000000180025095e-35 0.39882470531467568 0.24467120181405896 0.21714285714285717 213.50000000000003 6.5000000000000009 0.11050061050061051 0.16823899371069184 0.082079496968335955 0.16824413976116767 10.219674862121439 91.500000000000014
decision_type=2 2 2 2 2 10 10 8 2 10 8 2 2 10 8 8 8 8 2 8 8 10 10 2 10 8 10 8 8 10
left_child=2 11 3 4 5 6 21 8 15 16 18 -2 29 14 -9 -5 -6 -16 -10 -18 -21 22 23 24 -1 -26 -20 -4 -29 -3
right_child=1 12 27 7 9 -7 -8 13 10 -11 -12 -13 -14 -15 17 -17 19 -19 26 20 -22 -23 -24 -25 25 -27 -28 28 -30 -31
leaf_value=0.091283401061462294 0.015742078049806926 -0.042365530496522058 0.034822801258596853 0.049660590894680084 0.068705773592384362 0.25423555140238274 0.20558301554056044 0.15628372383038458 0.032510655249946556 0.05503759852671343 -0.011062533148862396 -0.0083727916894329873 -0.047552956155435894 0.21121638045582933 0.15790043761314776 0.21671959591180659 0.21174387654941765 0.02034990738164872 0.068593288664373767 0.099177400936492105 0.20456751643720789 0.18259242592048688 0.024374554450731917 0.082269287064417218 0.28983264498235239 0.12746693820871732 0.18733437624689467 -0.038682230473328291 0.071876991776616758 -0.024710717712188645
leaf_weight=7.4190456867218009 110.49331774562597 168.36340269446373 58.298688262701035 2.3783057481050482 2.7687881141901016 3.0327626168727866 4.7141076773405066 6.0959282293915757 12.431002117693424 3.1065214201807967 10.116490967571734 212.98265712708235 240.37421725690365 3.3429717496037474 2.5517676174640647 2.9169633761048317 20.49783780425787 7.1080182269215593 6.4356601908802986 6.6455509364604923 5.3085225075483331 4.1505829989910117 8.6430033221840841 28.795337051153183 3.1647216454148266 4.8469034731388101 3.4926425516605377 3.1047027781605712 63.381563372910023 248.62829116731882
leaf_count=71 1374 2335 683 27 25 24 36 58 133 28 114 2753 3357 29 23 26 165 67 71 55 42 35 87 287 28 42 37 39 679 3430
internal_value=-0.000161307 -0.0252344 0.0862053 0.113033 0.133243 0.112558 0.105598 0.0763954 0.0566103 0.168197 0.0427383 -0.000135605 -0.037585 0.115524 0.0952205 0.141687 0.178178 0.0566858 0.0670806 0.187518 0.145979 0.0973315 0.0906379 0.103588 0.14337 0.191604 0.110365 0.0518148 0.0667142 -0.031839
internal_weight=1265.59 980.842 284.748 159.963 103.094 64.7665 61.7337 56.8698 37.7711 38.3272 32.4758 323.476 657.366 19.0987 15.7557 5.29527 35.2207 9.65979 22.3593 32.4519 11.9541 57.0196 52.869 44.226 15.4307 8.01163 9.9283 124.785 66.4863 416.992
internal_count=16160 13249 2911 1510 925 610 586 585 408 315 355 4127 9122 177 148 53 287 90 241 262 97 550 515 428 141 70 108 1401 718 5765
is_linear=0
shrinkage=0.05


Tree=4
num_leaves=31
num_cat=0
split_feature=58 58 44 61 27 0 58 0 51 60 11 60 60 12 20 15 46 28 60 48 46 61 45 54 27 0 63 41 58 17
split_gain=260.155 129.157 104.054 58.8894 51.5209 47.7579 39.4781 29.1906 25.1442 23.9033 22.4943 22.2904 18.1259 17.9058 17.7156 21.2076 17.3858 20.4467 17.2874 17.0181 16.1821 16.0083 15.9561 19.173 15.9441 15.9386 18.4443 16.1433 15.3627 22.0023
threshold=0.16963540617536191 0.058394165561866114 0.081666666666666679 10.307063001720943 2.7083333333333335 9.5000000000000018 0.44150325523371414 8.5000000000000018 0.24190177638453506 1.4812542056074769 137.50000000000003 1.2546547619047621 1.1612916666666668 138.50000000000003 321.50000000000006 120.50000000000001 0.10072463768115944 -1.0000000180025095e-35 1.118016393442623 0.076018161805173387 0.054804804804804812 11.788563414415501 0.28416149068322988 4.2696969696969811 5.4583333333333348 5.5000000000000009 0.57738095238095244 0.12310606060606062 0.13486182800979227 -1.4999999999999998
decision_type=10 8 10 10 8 2 10 2 10 8 10 10 10 10 8 10 8 10 10 10 8 10 10 2 10 2 8 10 10 10
left_child=1 -1 5 -2 9 25 12 8 -6 -4 20 19 18 -12 15 -14 -17 21 24 -7 -11 -18 -21 -24 -5 26 -3 -28 -27 -30
right_child=3 2 4 6 7 11 -8 -9 -10 10 13 -13 14 -15 -16 16 17 -19 -20 22 -22 -23 23 -25 -26 28 27 -29 29 -31
leaf_value=-0.041105893691038599 -0.02429989294212169 0.0010478127016979475 -0.016982603386517029 0.10715711841087659 0.042972406546942649 -0.024083779617202414 0.16372908005264389 0.0082683216013843767 0.20627480147111241 -0.040676600160303167 0.16208985998656888 0.020697179814490707 0.24049318126420244 0.032370507808803385 0.062511660639537295 0.036745075979923256 0.32236882298393954 0.066100915923069548 -0.0013527229588543256 -0.0064415051912849412 0.081785697795355258 0.14241494387885295 0.017116478609342612 0.20989497579267111 0.0064280224712939442 0.0045813289769512282 0.05968050489194851 0.1903809624771941 0.20500604498257358 -0.028032413475343645
leaf_weight=219.76563160866499 11.583328336477278 12.309697836637499 5.2229554802179328 13.63194708526135 54.611897699534893 373.02706865221262 17.082199603319168 157.04513392597437 2.4635156467556945 3.4590837359428379 14.015684917569162 38.320436105132103 3.8582106828689602 3.2834745422005644 14.604693181812761 5.3238001912832233 2.1107488498091662 4.0141072347760236 10.643524527549742 108.55361221730709 12.253204762935638 2.9815082103013992 4.1339451521635047 1.8746525868773458 5.5190258696675292 140.8250300809741 14.283980950713159 2.8307283446192733 2.3055083900690079 1.8065185174345959
leaf_count=3161 155 139 62 123 615 5110 116 1961 24 42 121 475 35 29 137 51 21 35 99 1396 127 25 49 19 54 1745 159 28 27 20
internal_value=-0.000221277 -0.00655387 0.00141709 0.0810489 0.0289445 -0.00850289 0.0963465 0.0193978 0.0500209 0.082408 0.0981333 -0.0160214 0.0779849 0.137468 0.103573 0.136364 0.108523 0.150487 0.0497353 -0.0189071 0.0548254 0.217006 -0.00205137 0.0772624 0.0781285 0.0141743 0.0477254 0.081298 0.00736297 0.102626
internal_weight=1263.74 1172.39 952.626 91.3531 252.355 700.271 79.7698 214.121 57.0754 38.2344 33.0114 525.91 62.6876 17.2992 32.8931 18.2884 14.4302 9.10636 29.7945 487.589 15.7123 5.09226 114.562 6.0086 19.151 174.361 29.4244 17.1147 144.937 4.11203
internal_count=16160 15309 12148 851 2981 9167 696 2600 639 381 319 7049 580 150 304 167 132 81 276 6574 169 46 1464 68 177 2118 326 187 1792 47
is_linear=0
shrinkage=0.05


Tree=5
num_leaves=31
num_cat=0
split_feature=52 52 52 58 53 48 58 0 58 50 46 47 32 48 0 26 48 52 43 44 47 28 13 50 46 61 54 53 17 27
split_gain=890.25 91.9035 70.0458 47.1875 24.4212 23.0549 20.8396 20.0901 17.2671 16.8422 16.31 19.2952 24.1126 16.1926 16.7076 13.8391 13.5694 13.5561 13.4559 17.4314 16.1922 21.8755 15.3635 21.4895 13.3892 18.6881 13.2187 25.9455 12.42 12.1961
threshold=2.5000000000000004 6.5000000000000009 1.5000000000000002 0.26990602462300578 144.50000000000003 0.28470111448834862 0.1302932149065624 11.500000000000002 0.058394165561866114 0.060737812911725968 0.13446327683615822 0.16954022988505749 0.14835164835164838 0.25073099415204686 19.500000000000004 0.36666666666666675 0.17177407881633236 11.500000000000002 0.39230769230769241 0.17914438502673799 0.033908045977011504 -1.2375 148.50000000000003 0.12532722513089009 0.58333333333333337 11.336766614127894 -7.3944444444444448 152.50000000000003 1.5000000000000002 4.541666666666667
decision_type=2 2 2 8 2 10 10 2 8 10 10 8 8 10 2 10 8 2 10 10 10 8 8 8 8 10 2 2 8 10
left_child=2 6 3 9 7 13 8 -4 -2 -1 -6 12 -12 14 18 24 -14 -3 19 20 21 28 23 -21 -8 -26 -23 -28 -5 -13
right_child=1 17 4 5 10 -7 15 -9 -10 -11 11 29 16 -15 -16 -17 -18 -19 -20 22 -22 26 -24 -25 25 -27 27 -29 -30 -31
leaf_value=-0.0038988585009499355 -0.041780723712100135 -0.030771256103525962 0.26761036237412789 0.078522301997567434 0.034466111061994806 0.13764169282788533 -0.0073342964242994321 0.073599612086809346 -0.0055795303534981544 0.074581700291167369 -0.0058764124497977244 0.09120991407848951 0.24832614548693632 -0.023650686542912362 0.024079197175131226 0.16253752271879732 0.089780116235718022 -0.046847262369600642 0.22143867333174261 0.027916138029068279 0.14198854111353118 0.21154601418048405 0.025697617624247882 0.20219949088180039 0.034557853049018018 0.20133823224080799 0.0025908134251020377 0.1154406557415056 -0.057245562199604819 -0.022157757355284212
leaf_weight=14.207573242485525 36.352024555206299 311.54700500518084 2.1628790944814673 3.3193556219339371 109.36648909747601 40.187575899064541 12.459402039647108 3.4833573848009109 350.86421200633049 13.176134750247 2.0176691561937341 5.086863845586775 3.9366607815027246 2.8782875910401335 7.4061525613069525 2.0626853555440894 2.0535502657294273 226.45193830877542 2.3005997985601416 3.4562541246414211 26.065510109066963 2.7963102608919135 13.112573623657225 3.6224566474556923 7.7998408973216993 2.1405992805957794 5.9481018632650366 35.441589035093784 3.4201046228408813 4.4457502067089081
leaf_count=142 514 4508 23 32 1159 281 142 39 4569 117 23 53 40 24 73 23 21 3367 17 30 212 28 115 28 93 24 62 312 33 48
internal_value=8.04938e-05 -0.0239317 0.073667 0.0942188 0.0461714 0.10524 -0.00615057 0.147918 -0.00897811 0.0338634 0.0416446 0.086403 0.143619 0.0933778 0.0965291 0.0386065 0.193974 -0.0375379 0.101923 0.0990935 0.109938 0.0935331 0.057743 0.117104 0.0271944 0.0704728 0.106331 0.099223 0.00962356 0.0383383
internal_weight=1259.57 949.678 309.892 177.339 132.553 149.955 411.679 5.64624 387.216 27.3837 126.907 17.5405 8.00788 109.767 106.889 24.4625 5.99021 537.999 99.4829 97.1823 76.991 50.9255 20.1913 7.07871 22.3998 9.94044 44.186 41.3897 6.73946 9.53261
internal_count=16152 13240 2912 1506 1406 1247 5365 62 5083 259 1344 185 84 966 942 282 61 7875 869 852 679 467 173 58 259 117 402 374 65 101
is_linear=0
shrinkage=0.05


Tree=6
num_leaves=31
num_cat=0
split_feature=52 52 52 0 48 52 51 28 0 50 42 51 3 52 20 15 18 38 60 50 31 49 54 44 0 25 28 0 50 34
split_gain=774.416 87.985 55.0581 22.4453 20.6994 18.7653 14.9586 14.1282 14.9956 17.2477 13.7136 15.8858 17.6395 13.5504 13.2875 14.8247 17.3813 14.757 13.7235 12.9579 19.8045 15.9753 12.943 19.0492 16.6495 15.6538 14.9622 13.6812 12.3793 12.0045
threshold=2.5000000000000004 6.5000000000000009 1.5000000000000002 13.500000000000002 0.28470111448834862 3.5000000000000004 0.078695921436786706 11.012500000000001 12.500000000000002 0.033615819209039555 0.21169440887750748 0.10822072072072074 2.5000000000000004 12.500000000000002 38.500000000000007 128.50000000000003 0.60000000000000087 0.18465909090909094 1.2953506944444446 0.10948202054794522 0.24038461538461542 0.059072781655034899 -2.3603896103896171 0.324561403508772 10.500000000000002 1.0000000180025095e-35 4.8928571428571441 7.5000000000000009 0.076179071481208574 1.5000000000000002
decision_type=2 2 2 2 10 2 10 10 2 10 10 10 10 2 8 8 8 10 10 8 10 8 2 10 2 10 10 2 8 2
left_child=2 5 3 4 14 7 -5 -2 9 -9 -7 12 19 -3 15 29 -17 -18 28 20 21 -12 23 -4 26 -26 -24 -28 -16 -1
right_child=1 13 22 6 -6 10 -8 8 -10 -11 11 -13 -14 -15 18 16 17 -19 -20 -21 -22 -23 24 -25 25 -27 27 -29 -30 -31
leaf_value=-0.0027533065724199119 0.0075865146542320547 -0.03106716947357363 0.06127537246491032 0.033875149434889479 0.1288165450499833 -0.016190782563640541 0.084988127287981788 0.26251742849105736 -0.027500705863546152 0.046326630089790308 0.13364848937876542 -0.031584563657152252 0.19062434006674922 -0.048088047468948653 0.043997968434349166 0.035202937203278876 0.22443180620591266 0.10228222317353364 -0.012044542172651754 -0.0027197148396986993 0.24110003640083116 -0.027273937352527991 0.045128356195990253 0.21563622051417497 0.037854670726570193 -0.016355953300125032 0.062360234600825896 0.2156007606078322 0.091235647360307148 0.13953670640308594
leaf_weight=3.5768340900540379 105.37905494868755 343.81788067147136 22.534958206117157 30.65248579531908 33.955130651593208 265.53570345044136 26.855325661599636 1.7320733144879334 1.8320518955588339 1.9739668145775793 2.6568850204348626 10.879478037357329 1.8352085724472988 177.19297421351075 18.50968074798584 2.623262993991375 6.6444284245371801 3.9380905330181122 4.344936214387416 12.55559980869293 1.5221147611737249 3.6761796548962593 52.026067122817039 2.19319113343954 31.947578854858875 22.834544390439987 3.3507220000028601 2.5764951258897781 55.325078621506691 2.5313281714916229
leaf_count=30 1278 5131 231 286 206 3581 233 21 23 24 35 143 24 2744 158 20 46 27 38 167 20 49 510 19 338 249 32 27 440 22
internal_value=1.87988e-05 -0.0232245 0.0662829 0.0837977 0.0951959 -0.00588443 0.0577442 0.0116774 0.0895189 0.147367 -0.0124066 0.0179279 0.0421422 -0.0368559 0.0834865 0.120624 0.150416 0.178976 0.0743118 0.0287916 0.0791588 0.0402372 0.0422072 0.074966 0.0350217 0.0152583 0.0537035 0.128972 0.0793936 0.0562141
internal_weight=1257.01 930.589 326.42 188.957 131.449 409.578 57.5078 110.917 5.53809 3.70604 298.661 33.1255 22.246 521.011 97.4936 19.3139 13.2058 10.5825 78.1797 20.4108 7.85518 6.33306 137.464 24.7281 112.735 54.7821 57.9533 5.92722 73.8348 6.10816
internal_count=16152 13240 2912 1506 987 5365 519 1346 68 45 4019 438 295 7875 781 145 93 73 636 271 104 84 1406 250 1156 587 569 59 598 52
is_linear=0
shrinkage=0.05


Tree=7
num_leaves=31
num_cat=0
split_feature=52 52 52 58 58 53 58 13 11 52 39 50 50 33 26 49 45 46 40 45 43 10 50 58 60 53 45 46 50 54
split_gain=678.479 84.0947 44.3284 32.071 18.9454 16.3715 15.3486 15.2469 14.4693 13.5969 12.9967 15.5742 12.9118 12.8109 12.0873 11.8127 12.7794 11.5705 15.5354 15.9545 18.0148 11.3728 11.0353 12.5249 12.3543 10.6371 15.7318 13.173 11.1664 13.0819
threshold=2.5000000000000004 6.5000000000000009 1.5000000000000002 0.26990602462300578 0.058394165561866114 144.50000000000003 0.1302932149065624 122.50000000000001 79.500000000000014 11.500000000000002 0.37980769230769235 0.1283882783882784 0.060737812911725968 1.5000000000000002 0.45000000000000007 0.18377192982456142 0.16823899371069184 0.12461180124223604 0.21980676328502416 0.44337606837606841 0.095454545454545472 94.500000000000014 0.069848755895267539 0.20942431339526155 1.1546801346801348 162.50000000000003 0.04819976771196284 0.043106651802303983 0.20864427860696519 6.5358974358974402
decision_type=2 2 2 8 8 2 10 8 10 2 8 8 10 2 10 8 10 10 10 8 10 10 8 10 8 2 8 8 10 2
left_child=2 4 3 12 -2 8 15 -5 -4 21 11 -7 -1 25 -8 -6 -17 22 19 20 -19 -3 -12 24 -24 26 27 -9 29 -28
right_child=1 9 5 7 6 10 14 13 -10 -11 17 -13 -14 -15 -16 16 -18 18 -20 -21 -22 -23 23 -25 -26 -27 28 -29 -30 -31
leaf_value=-0.0060622086140533519 -0.040974644269135468 -0.040817746590737981 0.21329834107031692 0.039790150258732462 -0.012835426542851339 0.17586357315100334 0.025506960994584566 0.19646336499083672 0.05990425448353337 -0.045923647465330036 -0.0029846317594755278 0.0081711229379582157 0.060319998543557664 0.13702347142699148 0.15779271507841103 0.012868280149900088 -0.025859298473522915 -0.022009540029603245 0.15053518609679006 0.14258870863170989 0.10647323807612873 -0.020937125603490869 -0.046975565566049649 0.08296008164158869 0.032343756588315051 0.10016100949882552 0.061442540929510507 0.088661041727635378 0.12893019310011081 -0.043260301922661053
leaf_weight=14.71233667433262 34.703312035650015 123.80206121876836 2.4049688130617133 17.764884136617184 203.67391595989466 3.4452209398150444 23.424043163657192 4.1026086583733532 4.2613169178366661 209.2511780411005 26.234933719038963 2.3149071112275124 14.589290179312227 12.600483700633047 1.8642265126109112 117.97940994054079 25.994959741830826 8.6967592760920507 4.3200102224946013 3.2425215244293222 3.9753046110272416 171.70760256797075 5.300783857703208 11.373051635921 66.435725666582584 60.541433349251747 57.027132369577885 9.162932388484478 5.7440374419093123 3.1479664370417586
leaf_count=142 514 1913 23 150 2673 35 264 32 39 3367 268 23 117 76 18 1563 333 88 39 29 38 2595 54 101 669 408 438 78 39 26
internal_value=-3.12188e-05 -0.0225302 0.0600981 0.0753028 -0.00563875 0.0387488 -0.0023506 0.0836257 0.115244 -0.0361715 0.034981 0.108471 0.0269895 0.088738 0.0352589 -0.00508635 0.00587591 0.0317142 0.0664462 0.0436203 0.0182963 -0.029266 0.0252869 0.0342113 0.0264827 0.0843836 0.0723208 0.122001 0.0623232 0.0559652
internal_weight=1253.8 912.401 341.399 199.393 407.64 142.006 372.937 170.091 6.66629 504.761 135.339 5.76013 29.3016 152.327 25.2883 347.648 143.974 129.579 20.2346 15.9146 12.6721 295.51 109.344 83.1096 71.7365 139.726 79.1847 13.2655 65.9191 60.1751
internal_count=16152 13240 2912 1506 5365 1406 4851 1247 62 7875 1344 58 259 1097 282 4569 1896 1286 194 155 126 4508 1092 824 723 1021 613 110 503 464
is_linear=0
shrinkage=0.05


Tree=8
num_leaves=31
num_cat=0
split_feature=58 58 0 44 61 44 60 48 51 58 11 0 60 41 61 36 41 50 47 0 16 31 48 59 13 60 50 27 41 41
split_gain=147.248 105.961 70.7496 30.6982 30.4296 26.1573 22.8705 19.1405 20.0026 17.4163 17.328 17.1575 13.1692 16.5433 13.156 12.2855 11.9127 11.77 12.8471 11.6715 13.4832 11.2723 10.9523 12.9733 15.2389 14.5088 19.3079 10.8896 16.1313 14.0658
threshold=0.16963540617536191 0.063836584862925566 10.500000000000002 0.081666666666666679 9.7699804421082579 0.07417582417582419 1.2924174382386828 0.1449828520854077 0.23205128205128209 0.41237288712036191 120.50000000000001 20.500000000000004 1.1612916666666668 0.11173533083645444 11.196168515404866 0.61250000000000016 0.18350168350168353 0.10470653377630124 0.16397849462365593 5.5000000000000009 158.50000000000003 0.29285714285714287 0.10505093378607812 4.5000000000000009 128.50000000000003 1.6962757579026866 0.083683473389355764 3.9583333333333335 0.12310606060606062 0.078536184210526327
decision_type=10 8 2 10 10 10 10 10 10 10 10 2 10 8 8 8 10 10 8 2 10 10 10 10 8 10 8 8 10 8
left_child=1 -1 3 19 -2 6 -4 -7 27 11 -5 12 17 14 -14 21 -17 -6 -19 20 -3 -12 23 25 -25 26 -8 28 -9 -29
right_child=4 2 5 10 9 7 22 8 -10 -11 15 -13 13 -15 -16 16 -18 18 -20 -21 -22 -23 -24 24 -26 -27 -28 29 -30 -31
leaf_value=-0.038053755126418842 -0.035834351402499409 0.025187453459855232 -0.017505257152514907 0.022610985866377904 0.0032587479221809637 -0.0052775548466571466 -0.055312616109273086 -0.02645639157374648 0.14374977259974422 0.1013226757752155 0.048612571679385833 0.15723595588995329 0.1044173337318795 0.087124073356362602 -0.023792664838056449 0.049381928478987785 0.10189994801374569 0.12404842992152443 0.01616759058280598 0.0044004071819259138 0.12602134926483904 -0.057395787467575649 -0.025614185234643358 0.12672218031120061 -0.032721901284411881 0.20118117518741105 0.10261430093757902 0.095803661129413242 0.10522532550917484 0.0036955248996720577
leaf_weight=203.21152529492974 8.2976606488227826 27.413086540997032 421.25123415142298 63.035996794700623 22.625037111341953 89.740412071347237 2.7332254797220275 3.2584290355443946 3.696003131568431 23.597314298152924 7.9939513429999334 3.6858393624424926 2.77223018556833 27.381971217691898 7.1910128295421609 23.843791253864765 19.734798289835453 5.1394139006733868 5.9599302709102639 191.82967692613602 3.7713715732097617 3.6539060398936272 6.6427401676774016 1.9221432805061311 6.8003384843468675 2.1267921552062026 6.6299387887120256 4.6058133840560904 8.1249512955546361 41.413272205740213
leaf_count=3302 127 283 6012 686 196 1187 32 34 33 127 81 29 25 205 62 218 148 40 50 2343 33 36 76 23 87 20 75 54 68 460
internal_value=-7.29162e-05 -0.00531376 0.00176239 0.0199325 0.0561158 -0.00859086 -0.0146532 0.00941887 0.0310047 0.0638733 0.0405253 0.0520521 0.046597 0.0670502 0.0118812 0.0609729 0.073165 0.0239478 0.0661205 0.00901229 0.0373821 0.015358 0.0300845 0.0483897 0.00241424 0.0832915 0.0565134 0.0237454 0.0675322 0.0129142
internal_weight=1250.08 1143.43 940.222 341.277 106.65 598.945 448.106 150.839 61.0985 98.3527 118.262 74.7554 71.0696 37.3452 9.96324 55.2264 43.5786 33.7244 11.0993 223.014 31.1845 11.6479 26.8552 20.2124 8.72248 11.49 9.36316 57.4025 11.3834 46.0191
internal_count=16152 15291 11989 3828 861 8161 6325 1836 649 734 1169 607 578 292 87 483 366 286 90 2659 316 117 313 237 110 127 107 616 102 514
is_linear=0
shrinkage=0.05


Tree=9
num_leaves=31
num_cat=0
split_feature=52 52 52 58 58 20 52 58 45 48 41 53 58 13 48 24 49 49 45 37 8 39 20 19 46 20 61 56 54 10
split_gain=561.713 77.5794 33.2554 26.3069 16.6416 13.7641 13.7178 12.6658 17.6208 16.2628 14.1054 12.6628 12.6232 11.3329 11.331 11.3068 10.8363 10.7387 11.9059 13.7668 10.579 9.88774 15.1219 9.81726 12.5207 19.4858 15.2414 9.7926 9.75063 9.69298
threshold=2.5000000000000004 6.5000000000000009 1.5000000000000002 0.26990602462300578 0.058394165561866114 345.50000000000006 12.500000000000002 0.064703986066977331 0.2046049188906332 0.1251598465473146 0.032002048131080395 144.50000000000003 0.1302932149065624 122.50000000000001 0.10923295454545455 1.0000000180025095e-35 0.18044171220400732 0.18377192982456142 0.16823899371069184 1.0000000180025095e-35 2.5000000000000004 0.37980769230769235 41.500000000000007 5.5000000000000009 0.45000000000000007 217.50000000000003 10.936363226179374 167.50000000000003 0.48809523809524086 94.500000000000014
decision_type=2 2 2 8 8 10 2 10 8 8 10 2 10 8 8 8 8 8 10 8 2 8 10 2 8 10 10 10 2 10
left_child=2 4 3 16 -2 13 7 29 9 -9 28 14 17 27 -4 20 -1 -6 19 -19 -15 22 -13 -14 25 -25 -26 -5 -11 -3
right_child=1 6 11 5 12 -7 -8 8 -10 10 -12 21 23 15 -16 -17 -18 18 -20 -21 -22 -23 -24 24 26 -27 -28 -29 -30 -31
leaf_value=0.048952784774573301 -0.039764302969018409 -0.041612782993913799 0.18593352073931291 0.018559536025710623 -0.012416505935213267 0.01659877257543154 -0.0470627944777793 -0.034741413642288103 -0.045642620884716559 0.14191179141071372 0.23440648855690635 0.19044517671197683 -0.007301484551465765 0.1056198312081067 0.054256630852575795 0.06994733905168117 -0.010825437355710033 0.1405170207598295 -0.025456972204483272 0.0098261372104779896 0.033469154924583126 0.028074439316942392 0.03158013773743109 -0.021214775270773721 0.041720059320776305 0.16127540255859901 0.18939432926809976 0.12247191729299048 -0.024700035511119444 -0.023629766474096092
leaf_weight=17.018504016101364 32.425339948385954 130.22175019234419 2.4558805599808684 13.508574068546297 201.8269309848547 10.431096941232679 159.8753838762641 2.6227785311639282 6.2268117554485807 1.7892764657735827 1.7343853339552877 2.4140738919377327 10.287595748901369 49.183571316301823 4.8805416077375412 100.59905016422272 13.671071745455263 2.0502892062067986 25.683201491832733 117.20889507979155 5.6657009944319716 134.42448769509792 3.9470400512218475 7.1745280176401156 4.1025484800338736 1.8374001532793043 3.0434181988239288 2.7245590090751639 1.7244581542909143 176.48903359845281
leaf_count=138 514 2126 21 111 2673 82 2744 40 98 28 26 21 112 308 41 688 121 27 333 1536 38 1286 37 76 46 19 29 20 27 2786
internal_value=-9.64663e-05 -0.0215087 0.0524858 0.0651482 -0.00540575 0.0723649 -0.0350977 -0.0291349 0.0172049 0.0669247 0.117733 0.0342942 -0.00242064 0.0757532 0.0983357 0.0799045 0.0223238 -0.00496004 0.00542281 0.012073 0.098167 0.0309569 0.0918702 0.0308775 0.0551858 0.0159923 0.104614 0.0360001 0.0601426 -0.0312649
internal_weight=1247.25 886.324 360.924 212.802 405.64 182.113 480.684 320.808 14.0977 7.8709 5.24812 148.122 373.215 171.681 7.33642 155.448 30.6896 346.769 144.942 119.259 54.8493 140.786 6.36111 26.4455 16.1579 9.01193 7.14597 16.2331 3.51373 306.711
internal_count=16152 13240 2912 1506 5365 1247 7875 5131 219 121 81 1406 4851 1165 62 1034 259 4569 1896 1563 346 1344 58 282 170 95 75 131 55 4912
is_linear=0
shrinkage=0.05


Tree=10
num_leaves=31
num_cat=0
split_feature=52 52 52 58 58 7 49 8 23 52 54 0 45 20 0 17 20 49 58 49 45 25 40 48 15 10 20 56 16 58
split_gain=517.648 78.2443 44.3187 30.4964 17.3924 17.0891 16.1381 15.3322 12.7715 12.4716 11.4317 11.3585 11.6854 10.6326 10.3223 16.642 19.0863 14.6706 13.3762 12.001 12.0628 11.6207 11.929 15.9531 13.3426 12.3995 10.3149 9.82013 9.7732 9.53102
threshold=2.5000000000000004 6.5000000000000009 1.5000000000000002 0.26990602462300578 0.058394165561866114 1.0000000180025095e-35 0.13840996168582378 1.0000000180025095e-35 3.5000000000000004 10.500000000000002 11.231283422459898 12.500000000000002 0.32417582417582425 213.50000000000003 11.500000000000002 2.5000000000000004 142.50000000000003 0.071946169772256749 0.29368638951181653 0.11035007610350077 0.17047223663726002 1.0000000180025095e-35 0.10818713450292398 0.24190177638453506 126.50000000000001 138.50000000000003 40.500000000000007 80.500000000000014 125.50000000000001 0.26143835522808362
decision_type=2 2 2 8 8 2 10 2 10 2 2 2 10 10 2 10 10 8 8 10 8 10 10 8 10 10 8 10 8 10
left_child=2 4 3 26 -2 6 7 -5 14 -3 -7 13 -13 -9 15 18 17 -17 -4 20 28 22 24 -24 -16 -26 -1 29 -20 -6
right_child=1 9 8 5 27 10 -8 11 -10 -11 -12 12 -14 -15 21 16 -18 -19 19 -21 -22 -23 23 -25 25 -27 -28 -29 -30 -31
leaf_value=0.072242626763567394 -0.039970428665293503 -0.027125955238662694 -0.0058226366487623997 0.12711843158406175 0.00052151563935614719 0.091471212650339695 0.08985599075696192 0.061863829604832866 -0.027227687327591239 -0.043407279884327965 -0.0021467155761202071 -0.021385883658892421 0.08342118678309704 0.010640082371050158 0.0066826522728492856 0.045448672062536555 0.041649774679839782 0.19470728132989687 0.13097694659916159 0.0073011267120083479 0.093163518586897281 -0.0098267250946089176 0.036782565807476422 0.19011044184554479 0.18083365450347444 0.013635324613929495 0.002496454679125086 -0.021396216483293096 0.015113282996213315 0.11886817309549472
leaf_weight=6.7595379799604443 33.277684029191732 236.50592923536897 17.156017377972603 5.3815287500619879 317.22991857677698 80.359248407185078 28.193158105015755 43.671062901616096 9.728134058415888 233.98873952031136 3.3987863808870307 12.081224158406256 3.4102276489138594 13.190512664616106 26.017590515315536 2.42339610308409 10.040336348116396 5.1340461745858192 2.1131237968802461 13.884322077035902 16.193724401295185 24.794492729008198 4.792179323732852 2.6261069998145103 2.3063105866312972 2.1357131078839302 24.568797908723354 56.877355091273785 13.122740738093853 1.7104189097881306
leaf_count=51 547 3836 148 30 4148 525 172 280 86 4109 25 101 22 85 255 22 88 43 18 126 140 258 45 24 21 21 212 725 121 19
internal_value=-0.000376588 -0.0213174 0.0489413 0.0632469 -0.00532475 0.070795 0.0574499 0.0456967 0.0282041 -0.0352231 0.0876723 0.0396407 0.00168594 0.0499812 0.031982 0.0438778 0.0868265 0.146845 0.0317791 0.0460153 0.0631177 0.0167844 0.0342037 0.0910613 0.0203563 0.100445 0.0175452 -0.00225696 0.0311829 0.00115619
internal_weight=1253.07 879.59 373.482 221.014 409.095 189.686 105.928 77.7346 152.468 470.495 83.758 72.353 15.4915 56.8616 142.74 80.0677 17.5978 7.55744 62.4699 45.3139 31.4296 62.6724 37.8779 7.41829 30.4596 4.44202 31.3283 375.818 15.2359 318.94
internal_count=16303 13384 2919 1503 5439 1240 690 518 1416 7945 550 488 123 365 1330 706 153 65 553 405 279 624 366 69 297 42 263 4892 139 4167
is_linear=0
shrinkage=0.05


Tree=11
num_leaves=31
num_cat=0
split_feature=52 52 52 58 58 52 23 14 54 42 27 13 46 10 48 47 19 56 46 45 45 58 10 20 51 10 28 21 63 56
split_gain=459.825 74.6605 37.4182 25.3304 16.3886 12.3974 11.2315 12.2955 11.229 13.2282 12.5192 14.9955 14.6053 10.7059 10.6824 10.5545 10.1024 9.0357 8.94569 9.87007 21.0257 10.629 9.44671 12.6324 10.8826 8.83433 8.79542 9.18729 8.60267 8.21051
threshold=2.5000000000000004 6.5000000000000009 1.5000000000000002 0.26990602462300578 0.058394165561866114 10.500000000000002 3.5000000000000004 123.50000000000001 -6.9348739495798233 0.23138461538461544 15.716666666666667 139.50000000000003 0.14699074074074078 114.50000000000001 0.22276159654800434 0.16397849462365593 8.5000000000000018 80.500000000000014 0.14434523809523811 0.25320512820512825 0.30151515151515157 0.31595655472587153 135.50000000000003 57.500000000000007 0.0613139992839241 97.500000000000014 2.7625000000000006 3.5000000000000004 1.0000000180025095e-35 43.500000000000007
decision_type=2 2 2 8 8 2 10 8 2 10 10 8 8 10 8 10 2 10 10 10 10 10 8 8 8 10 8 2 8 10
left_child=2 4 3 26 -2 25 7 -4 14 15 11 -11 13 -13 -9 18 -5 29 19 21 -21 22 23 -10 -25 -3 27 -1 -17 -6
right_child=1 5 6 16 17 -7 -8 8 9 10 -12 12 -14 -15 -16 28 -18 -19 -20 20 -22 -23 -24 24 -26 -27 -28 -29 -30 -31
leaf_value=0.096830753335486561 -0.039354085432534928 -0.037683380131770333 -0.013378095168209975 0.068135806951589592 -0.0001914932570441856 -0.042886713913876474 -0.026398068681962046 0.18103269752962495 0.13018788760943675 0.20489474677510527 -0.01698423415680218 0.15508050063153075 0.0069936384224027516 0.047350315825841621 0.041138119342045094 0.049225834982243498 0.028208085247392531 -0.02069877141027637 0.088188843029076702 0.17541121704103496 -0.0084701862246223548 0.12344931334521153 0.0043454654727262641 0.079601601586245851 0.0072336899097658978 -0.017926503488530258 -0.00057597942384960592 -0.0048068266025526989 -0.045750735373971771 0.051041654991628306
leaf_weight=5.7005816251039487 32.137998178601265 99.078330479562283 14.937200859189032 179.79895906150341 311.21821612119675 225.21080899238586 9.5371046811342222 2.4900297448039046 3.4534275010228184 2.2632390037179055 3.6511922478675833 5.1118883937597239 6.1089553460478792 4.2017081379890442 3.0192515328526497 3.2746348306536648 17.373010911047459 55.879977725446224 6.1333201751112929 3.2092521563172332 3.0151461586356163 2.4526236429810515 48.813840754330158 7.3173238188028362 17.910492077469826 131.91749619320035 22.346497461199764 3.6451130658388138 8.7678853943943977 8.0215792879462224
leaf_count=44 547 1698 146 1125 4067 4109 86 19 31 17 32 38 51 32 26 30 115 725 52 27 26 18 461 70 171 2138 190 29 83 100
internal_value=-0.000394024 -0.0206477 0.0450854 0.0579488 -0.00508663 -0.0345391 0.0261736 0.0296046 0.0344984 0.0314358 0.0673077 0.0847096 0.0670726 0.106479 0.104366 0.0241008 0.0646177 -0.0021508 0.0298445 0.0256918 0.0863377 0.0209702 0.0177268 0.0405012 0.028224 -0.0264006 0.0164583 0.0571889 -0.0199244 0.00109585
internal_weight=1248 863.464 384.533 228.864 407.258 456.207 155.669 146.131 131.194 125.685 21.337 17.6858 15.4226 9.3136 5.50928 104.348 197.172 375.12 92.3054 86.1721 6.2244 79.9477 77.4951 28.6812 25.2278 230.996 31.6922 9.34569 12.0425 319.24
internal_count=16303 13384 2919 1503 5439 7945 1416 1330 1184 1139 170 138 121 70 45 969 1240 4892 856 804 53 751 733 272 241 3836 263 73 113 4167
is_linear=0
shrinkage=0.05


Tree=12
num_leaves=31
num_cat=0
split_feature=52 52 52 53 39 49 50 0 43 61 50 42 61 45 18 28 49 44 28 8 63 61 18 28 0 50 42 18 61 49
split_gain=413.479 64.9053 41.0164 18.2451 14.0452 12.9376 11.7047 11.3818 12.1927 11.3361 13.1582 11.0834 27.3679 18.4549 10.871 9.53095 14.5421 9.5061 10.9424 9.49813 11.1401 12.6243 9.92376 9.72288 10.6469 12.4366 12.2902 10.7573 10.0048 9.81694
threshold=3.5000000000000004 1.5000000000000002 8.5000000000000018 163.50000000000003 0.86607142857142871 0.13660287081339714 0.15034246575342466 14.500000000000002 0.46060606060606063 12.115489355731343 0.079042029534267325 0.3257575757575758 9.5376330763337176 0.086335403726708088 -1.0000000180025095e-35 -16.649999999999995 0.13906469760900145 0.40588235294117653 1.7589285714285718 1.5000000000000002 0.44949494949494956 9.6368256516577127 6.5000000000000027 10.008928571428575 6.5000000000000009 0.083683473389355764 0.26051608342170385 -4.0000000000000009 9.3560202337139433 0.09039836567926457
decision_type=2 2 2 2 8 8 10 2 10 8 10 10 10 10 8 8 10 8 8 2 8 8 10 10 2 8 10 8 10 10
left_child=1 3 11 6 5 -5 7 8 14 10 -6 15 -13 -14 -1 16 -2 18 -9 20 22 -22 -3 24 25 -21 -27 -26 29 -25
right_child=2 19 -4 4 9 -7 -8 17 -10 -11 -12 12 13 -15 -16 -17 -18 -19 -20 23 21 -23 -24 28 27 26 -28 -29 -30 -31
leaf_value=-0.025631283602567723 -0.00022509603827430803 -0.0015202949555303976 -0.038224218442738135 -0.043173015228289445 -0.011446319272792839 0.076656470921946052 0.070442041678362308 -0.035795606647688681 0.11813686076322737 0.088442604675413414 0.10987949897154302 -0.014228074443393288 0.29407499708532986 0.04403142233045082 0.04591073949683519 -0.017030495829537518 0.12836928256116581 -0.019851385621958324 0.053125117951244527 -0.013714212963111594 -0.044125270785031145 0.040979049941993993 0.11103470575275903 0.043800280460999735 0.11226843470051412 0.0452416057165042 0.17535436467385848 -0.0027653214386572653 -0.03325668485982701 0.17187579126184124
leaf_weight=5.6901761442422867 11.16796564683318 35.98057097196579 313.06886034831405 4.7127789035439465 6.4423847272992116 4.3147853389382371 31.878536276519299 4.4227013885974902 5.4704165905714026 60.541459515690804 3.4216910526156425 7.4997690729796869 1.4344950690865519 1.5197229646146295 79.451782859861851 393.53820840641856 2.737342868000268 13.940234258770941 15.890745833516119 7.9412178248167065 4.5852253362536421 87.764553606510162 2.0710554718971244 3.9763154760003072 2.0699019134044647 12.705334059894083 2.1173868775367728 111.9208996668458 2.1261794865131378 2.3987744525074959
leaf_count=42 168 358 5764 30 42 22 191 37 26 330 21 107 20 20 523 5862 39 116 123 73 56 881 19 41 21 124 16 1187 21 23
internal_value=-0.000407104 0.034058 -0.0245402 0.0532938 0.0728156 0.0141003 0.0434008 0.0364971 0.0457785 0.0803442 0.0306397 -0.0142887 0.0365466 0.165446 0.0411295 -0.015593 0.0250895 0.0119447 0.033765 0.0175771 0.0273727 0.0367536 0.00460579 0.00878331 0.005558 0.0367773 0.0638279 -0.000676481 0.0606669 0.0919916
internal_weight=1242.8 511.835 730.966 236.178 79.4331 9.02756 156.745 124.866 90.6124 70.4055 9.86408 417.898 10.454 2.95422 85.142 407.444 13.9053 34.2537 20.3134 275.657 130.401 92.3498 38.0516 145.256 136.755 22.7639 14.8227 113.991 8.50127 6.37509
internal_count=16303 4323 11980 1503 445 52 1058 867 591 393 63 6216 147 40 565 6069 207 276 160 2820 1314 937 377 1506 1421 213 140 1208 85 64
is_linear=0
shrinkage=0.05


Tree=13
num_leaves=31
num_cat=0
split_feature=52 52 52 58 58 58 18 36 53 8 28 64 39 49 42 50 50 50 49 49 51 44 60 32 20 20 41 48 28 64
split_gain=372.296 55.8773 39.7106 20.5884 15.5693 12.7899 13.8223 13.4082 12.7716 12.0403 12.8354 14.5507 11.3894 11.0616 12.0547 11.6722 11.2673 11.0508 11.0327 10.4684 10.1578 23.5277 13.1155 10.7445 15.2885 10.1395 10.592 10.0099 9.89821 14.6875
threshold=3.5000000000000004 1.5000000000000002 8.5000000000000018 0.17286097614906984 0.030238889973965479 0.16963540617536191 5.9999999999999956 0.29285714285714287 163.50000000000003 1.5000000000000002 7.7375000000000007 0.40833333333333338 0.86607142857142871 0.082951070336391444 0.21712938711367211 0.051414221517314306 0.16152751423149908 0.050316455696202543 0.13660287081339714 0.091431556948798343 0.10327052968361182 1.0000000180025095e-35 1.247214576468308 0.68333333333333346 200.50000000000003 307.50000000000006 0.1101010101010101 0.23205128205128209 -16.649999999999995 0.73030303030303034
decision_type=2 2 2 8 8 8 10 10 2 2 10 8 8 10 10 8 8 10 8 8 8 8 10 8 10 10 10 8 8 10
left_child=1 3 4 -1 -2 6 -3 9 17 13 -11 -12 18 15 -15 -7 -16 -5 -10 -13 21 -17 23 -22 27 26 -19 -25 29 -6
right_child=2 5 -4 8 28 7 -8 -9 12 10 11 19 -14 14 16 20 -18 25 -20 -21 22 -23 -24 24 -26 -27 -28 -29 -30 -31
leaf_value=-0.0090345612230900516 -0.053094411515070911 -0.0087852307590852597 -0.037597171360330736 0.029788776924233859 0.0075899768238764584 0.0078902728886807352 0.10573844274399143 -0.028841248112834058 -0.041210375464471947 0.0090230515506746194 0.15537255560991994 -0.056579633124259232 0.07555367938806902 0.00085684756699081941 0.1176017753214437 0.23542761275156443 -0.016199636621142148 0.082019675978395601 0.07078364652788563 0.087057798087629562 -0.014524123428622016 0.067037215266912795 0.16591509026974546 0.0066914734427327626 0.18673155230171792 0.0008773800983933194 0.043264739024382937 0.072769174118950938 -0.012872025581234934 0.14827940212383778
leaf_weight=14.256237059831617 23.706093896180391 58.853720165789127 302.64203080162406 70.117481157183647 11.323441397398708 12.39897385239601 2.7581663057208052 12.173260085284708 4.3609203621745083 101.88830428570509 3.2886164560914013 2.364002764225007 71.525348328053951 27.739979840815067 4.7969173565506926 2.5651444643735859 2.3413735330104828 35.827341355383396 4.4358321726322183 2.7372260838747025 7.0751061365008345 10.841925241053104 2.2071253806352606 10.235427729785448 2.0312080755829802 7.2560603395104399 34.712245725095272 13.02467756718397 375.63329557329416 2.218556333333253
leaf_count=129 433 627 5764 464 162 129 27 114 28 1047 32 24 380 279 40 26 20 227 22 23 72 104 16 102 17 53 200 121 5590 31
internal_value=-0.000417507 0.0316987 -0.023839 0.0492591 -0.0137543 0.0164538 -0.00365837 0.0221455 0.0529003 0.0251653 0.013918 0.0733629 0.0689508 0.0381861 0.0157681 0.0511358 0.0737146 0.0441843 0.0152635 0.0204936 0.0623112 0.099255 0.047985 0.0399431 0.05518 0.0571591 0.0629485 0.0436922 -0.011358 0.0306388
internal_weight=1237.34 521.813 715.523 242.491 412.881 279.321 61.6119 217.709 228.235 205.536 110.278 8.38985 80.3221 95.2579 34.8783 60.3796 7.13829 147.913 8.79675 5.10123 47.9806 13.4071 34.5735 32.3664 25.2913 77.7956 70.5396 23.2601 389.175 13.542
internal_count=16303 4323 11980 1503 6216 2820 654 2166 1374 2052 1126 79 430 926 339 587 60 944 50 47 458 130 328 312 240 480 427 223 5783 193
is_linear=0
shrinkage=0.05


Tree=14
num_leaves=31
num_cat=0
split_feature=52 52 52 58 58 58 36 18 53 8 11 42 61 45 18 39 49 50 49 61 54 42 54 10 49 39 15 50 17 45
split_gain=335.517 48.3959 38.4035 17.7093 15.0976 11.2123 11.9252 11.6634 10.9919 10.2131 10.027 9.8987 19.8911 12.4353 9.63649 9.51275 9.83203 9.30244 9.18355 11.388 10.2873 10.1808 9.50902 10.2286 9.1596 9.12651 12.7648 9.00711 8.954 8.77454
threshold=3.5000000000000004 1.5000000000000002 8.5000000000000018 0.17286097614906984 0.030238889973965479 0.16963540617536191 0.29285714285714287 7.9999999999999956 163.50000000000003 1.5000000000000002 74.500000000000014 0.3257575757575758 9.5376330763337176 0.08248299319727892 -3.9999999999999978 0.86607142857142871 0.13660287081339714 0.050316455696202543 0.082951070336391444 11.451173031067038 -0.48913043478260926 0.21712938711367211 -2.3038461538461656 143.50000000000003 0.043797953964194385 0.13392857142857145 104.50000000000001 0.16152751423149908 17.500000000000004 0.25866188769414583
decision_type=2 2 2 8 8 8 10 10 2 2 8 10 10 10 8 8 8 10 10 10 2 10 2 8 8 8 8 8 10 8
left_child=1 3 4 -1 -2 7 9 -3 17 18 -11 25 -13 -14 -12 16 -10 -5 19 20 22 -20 -7 -24 -17 26 -6 -23 -28 -16
right_child=2 5 -4 8 11 6 -8 -9 15 10 14 12 13 -15 29 24 -18 -19 21 -21 -22 27 23 -25 -26 -27 28 -29 -30 -31
leaf_value=-0.0086407894071483197 -0.052934450744727746 -0.0075340693060999588 -0.036965041905723521 0.027801063517163591 0.13819223828035179 0.042489873127253344 -0.02800801577333217 0.11405533700172828 -0.040120753456736727 0.11589865123307577 0.095877018338513698 -0.010995124974593404 0.22940155776281401 0.037405799032023491 -0.0019132114049018691 0.02052903966138021 0.065638168335241012 0.052619447729787099 0.00081345986509061708 0.11655663855291672 0.027054074608167757 0.10302899399719326 0.20685573235119872 0.074850235255867398 0.075796486557711928 -0.013429000786666159 -0.032826711028824299 -0.015570786587077985 0.10475714616033203 0.028604435586833434
leaf_weight=14.163053594529627 22.616355057805777 59.394114557653666 292.68106925487518 71.341410607099533 2.3426644504070273 9.476013131439684 11.915296867489813 2.0400396436452857 4.2580320760607693 2.3210845664143553 3.2355452105402946 6.9476217925548536 1.7508354485034945 1.6271239407360552 70.521589301526546 8.4677953198552114 4.5415088310837755 80.201998151838779 27.758100844919682 5.3343688100576392 41.431818790733814 5.1904726326465598 2.2624813020229331 4.176240012049675 65.379761517047882 366.45411145314574 4.7362024784088144 2.3148278072476387 1.5760808251798151 35.365928888320923
leaf_count=129 433 635 5764 464 36 90 114 19 28 24 29 100 19 21 734 48 22 480 279 37 397 40 21 42 332 5512 71 20 24 339
internal_value=-0.000426488 0.0295475 -0.023144 0.045652 -0.0132307 0.0154015 0.0206476 -0.00349646 0.0489354 0.0234164 0.0130642 -0.010901 0.0373943 0.136919 0.0108768 0.0636036 0.0144622 0.0409358 0.0351955 0.0466791 0.0401791 0.0147832 0.0743484 0.121235 0.0694592 -0.0122304 0.0385178 0.0664498 0.00152588 0.00827954
internal_weight=1231.82 531.091 700.732 248.354 408.051 282.738 221.304 61.4342 234.191 209.388 111.444 385.435 10.3256 3.37796 109.123 82.6471 8.79954 151.543 97.9443 62.6809 57.3466 35.2634 15.9147 6.43872 73.8476 375.109 8.65495 7.5053 6.31228 105.888
internal_count=16303 4323 11980 1503 6216 2820 2166 654 1374 2052 1126 5783 140 40 1102 430 50 944 926 587 550 339 153 63 380 5643 131 60 95 1073
is_linear=0
shrinkage=0.05


Tree=15
num_leaves=31
num_cat=0
split_feature=52 52 58 58 52 0 16 17 50 48 42 42 64 47 28 54 49 48 41 44 50 60 54 51 59 52 38 58 47 46
split_gain=308.174 34.8912 23.7601 16.7357 12.1561 12.0497 13.4365 13.0813 9.93818 14.5783 13.5488 11.4067 11.734 24.0428 9.21583 8.76437 8.74188 22.3449 11.5735 13.431 10.6657 10.3908 9.86554 9.74637 9.75742 11.2322 11.3564 8.58668 14.2563 8.56243
threshold=3.5000000000000004 6.5000000000000009 0.16963540617536191 0.56498978549540368 12.500000000000002 12.500000000000002 73.500000000000014 1.5000000000000002 0.11736011477761839 0.14976635514018694 0.092248283752860413 0.22295321637426904 0.36931818181818188 0.045983086680761107 7.5000000000000018 -4.3693181818181861 0.15811403508771932 0.12718151413803588 0.18634259259259262 0.25543478260869573 0.15635629251700683 1.156763658459669 -6.1143790849673243 0.084797123780174635 1.5000000000000002 1.5000000000000002 0.63333333333333341 0.063271123067438498 0.14495798319327732 0.11576035272758711
decision_type=2 2 8 10 2 2 8 10 8 10 8 8 10 10 8 2 8 8 10 8 8 8 2 8 8 2 8 10 10 8
left_child=2 -2 15 5 27 8 -7 -8 9 11 -11 -4 13 14 -13 -1 17 18 19 20 -10 -18 -23 -19 -25 26 -26 -3 -29 -27
right_child=1 4 3 -5 -6 6 7 -9 16 10 -12 12 -14 -15 -16 -17 21 23 -20 -21 -22 22 -24 24 25 29 -28 28 -30 -31
leaf_value=0.042504388278515805 -0.0094368228525602092 -0.028679109218773608 -0.0030544826186837781 0.086388881722013949 -0.045186066795752787 0.11075159365524577 0.023561716138094511 -0.013542598096415729 0.21308336009393522 0.12583120648601973 0.03808456912797617 -0.043563073641993209 -0.0096648651591107991 0.17361738361097928 0.049078757238886404 -0.0059662147914627652 -0.0016955616286738829 -0.0014793607410830975 0.022811489677534276 0.056269791217774028 0.11008179017851549 -0.034215947175858373 0.0444194670466685 0.13183781393954905 -0.0060359293364802957 0.046340944210481606 0.089573598646752309 -0.0052907043047399948 0.16351116050389919 -0.029115057201618888
leaf_weight=10.935724154114721 276.20142103731632 266.90578415244818 48.652671329677105 13.544646382331846 128.27580514550209 3.8134081587195388 111.2639919295907 30.202266059815884 4.5105021372437468 4.9728226214647284 38.141114570200443 3.2660354822874096 9.936754032969473 3.617896892130374 15.076182492077356 63.365097679197788 16.760825715959072 11.197219930589197 3.5935180783271781 5.0966491773724565 5.675947219133378 4.170708291232585 91.366923585534096 3.4483752623200408 3.9331028684973717 8.146216101944443 14.765940286219122 13.501285120844839 1.3785284981131543 6.9820358455181131
leaf_count=102 3987 4993 421 58 2742 32 922 279 32 34 254 28 82 28 119 670 106 77 27 41 36 37 657 19 21 73 74 229 20 64
internal_value=-0.000980578 -0.0231739 0.0274113 0.0316307 -0.0324267 0.0299773 0.0181367 0.0156401 0.0356487 0.0247401 0.0482054 0.0121804 0.0354183 0.0558181 0.0325829 0.00116777 0.0431578 0.0574002 0.103551 0.122535 0.15569 0.0346162 0.0409866 0.0394278 0.0517159 0.0435482 0.0694634 -0.0266183 0.0103478 0.0115163
internal_weight=1222.7 686.263 536.437 462.136 410.061 448.591 145.28 141.466 303.311 123.663 43.1139 80.5495 31.8969 21.9601 18.3422 74.3008 179.648 67.3495 18.8766 15.2831 10.1864 112.298 95.5376 48.4729 37.2757 33.8273 18.699 281.786 14.8798 15.1283
internal_count=16264 11971 4293 3521 7984 3463 1233 1201 2230 966 288 678 257 175 147 772 1264 464 136 109 68 800 694 328 251 232 95 5242 249 137
is_linear=0
shrinkage=0.05


Tree=16
num_leaves=31
num_cat=0
split_feature=52 52 58 58 52 19 17 10 41 52 58 60 28 50 28 49 54 42 49 48 49 20 60 17 49 58 45 63 10 60
split_gain=278.611 33.4605 20.7213 14.8599 12.0943 10.3374 8.57799 9.83382 11.7503 9.08175 10.6492 10.3521 10.2252 15.0389 10.6816 9.95243 12.6619 12.1281 9.62957 10.8824 9.43288 9.31909 8.90859 8.87 8.73128 8.05161 13.3202 9.52408 14.0044 11.1299
threshold=3.5000000000000004 6.5000000000000009 0.16963540617536191 0.56498978549540368 12.500000000000002 10.500000000000002 -6.4999999999999991 113.50000000000001 0.21103238866396765 1.5000000000000002 0.29368638951181653 1.1945141065830722 7.0250000000000012 0.027402402402402406 14.762500000000003 0.17089216944801031 11.55050505050504 0.28743545611015492 0.17684288905435594 0.20248039768359558 0.15459297983569831 240.50000000000003 1.2737281782706924 48.500000000000007 0.13906469760900145 0.063271123067438498 0.2046049188906332 0.73030303030303034 128.50000000000003 1.1680983764213386
decision_type=2 2 8 10 2 2 8 10 8 2 10 8 10 10 10 10 2 8 8 10 8 8 10 8 10 10 8 10 8 10
left_child=2 -2 -1 5 25 6 7 -4 -9 11 12 18 21 14 -14 16 -13 -17 19 24 -12 22 -11 -15 -8 -3 27 28 29 -27
right_child=1 4 3 -5 -6 -7 9 8 -10 10 20 15 13 23 -16 17 -18 -19 -20 -21 -22 -23 -24 -25 -26 26 -28 -29 -30 -31
leaf_value=0.001103198525810628 -0.0090388809421679487 -0.02796585183193704 0.0029110807256283277 0.080682456636831504 -0.04476295297355929 -0.031298788428365226 -0.030043089676220137 0.032297350676736024 0.14568388363558046 -0.0030768555469113125 0.0073465227164166052 0.038095560669182016 0.20087572736172327 -0.010092912902515074 0.056377788009549762 0.090916362672546824 -0.038114938450617475 0.002956358497457501 -0.016056470886921245 0.080322973486222679 0.11000673297240722 0.02368497418980518 0.072522010121062339 0.077719958066724271 0.065825931873052898 0.22199705757818633 -0.045324822232154671 0.15816731327026803 -0.030695928103935195 0.017520867538469542
leaf_weight=74.350123386830091 274.00077496096492 260.20000099763274 4.0015165284276 13.771231248974798 123.14417877420783 7.2412729561328879 6.9761698767542857 4.0266098752617809 5.2823283746838579 70.961401969194412 3.553437523543832 153.92005174607038 2.4976097792387035 7.2857922688126537 2.6211760267615318 17.310952119529251 5.6502368599176398 5.0656332597136489 17.568226896226406 7.8414902985095969 6.0425861626863488 115.94457797706127 4.1233295276761046 4.7509278804063806 3.6008816212415695 1.2692758962511983 6.3512516319751748 1.6478402800858019 4.3522742465138435 1.3990249037742613
leaf_count=772 3987 4993 34 58 2742 62 42 27 39 694 23 897 21 68 23 92 35 31 96 36 38 1115 31 41 18 20 114 24 70 21
internal_value=-0.000959341 -0.0224881 0.0256305 0.0295102 -0.0317387 0.0279657 0.0289215 0.068461 0.0966382 0.0277136 0.0204924 0.0349297 0.0181187 0.0550956 0.126883 0.0397761 0.035397 0.0710039 0.0104264 0.0356867 0.0719913 0.0147979 0.00107471 0.0245671 0.00259483 -0.0259112 0.00968435 0.049989 0.0245978 0.114788
internal_weight=1216.75 672.365 544.388 470.037 398.364 456.266 449.025 13.3105 9.30894 435.714 217.781 217.934 208.185 17.1555 5.11879 181.947 159.57 22.3766 35.9868 18.4185 9.59602 191.029 75.0847 12.0367 10.5771 275.22 15.0197 8.66842 7.02058 2.6683
internal_count=16264 11971 4293 3521 7984 3463 3401 100 66 3301 2054 1247 1993 153 44 1055 932 123 192 96 61 1840 725 109 60 5242 249 135 111 41
is_linear=0
shrinkage=0.05


Tree=17
num_leaves=31
num_cat=0
split_feature=52 52 58 58 52 19 13 20 60 10 27 27 51 28 18 54 10 36 9 10 50 42 52 53 61 54 50 11 58 28
split_gain=252.171 32.0538 18.132 13.2892 12.0115 9.20138 8.35716 12.7208 13.388 9.24336 9.99094 7.80876 10.6552 9.42208 9.11288 7.69372 7.50475 8.61476 13.8295 7.66208 14.3543 9.52472 7.43501 10.0286 11.9125 10.6301 9.51059 8.65168 8.46178 8.78486
threshold=3.5000000000000004 6.5000000000000009 0.16963540617536191 0.56498978549540368 12.500000000000002 10.500000000000002 114.50000000000001 414.50000000000006 1.2408316922042368 103.50000000000001 32.041666666666679 20.291666666666668 0.040202020202020211 1.1250000000000007 -0.10000000000000211 -3.7735042735042721 97.500000000000014 0.34848484848484856 1.5000000000000002 108.50000000000001 0.17521929824561405 0.10507913139492088 1.5000000000000002 163.50000000000003 12.115489355731343 6.4330357142857091 0.079042029534267325 116.50000000000001 0.29368638951181653 4.7500000000000018
decision_type=2 2 8 10 2 2 8 8 10 8 8 10 8 8 10 2 10 8 2 10 10 10 2 2 8 2 10 10 10 10
left_child=2 6 15 5 16 22 7 8 11 10 -8 12 -2 14 -14 -1 17 18 -3 20 21 -18 23 25 26 27 -25 -4 29 -24
right_child=1 4 3 -5 -6 -7 9 -9 -10 -11 -12 -13 13 -15 -16 -17 19 -19 -20 -21 -22 -23 28 24 -26 -27 -28 -29 -30 -31
leaf_value=0.036561269320089386 0.12498566509594954 0.20306529883006733 0.01880876476119589 0.07567808090465733 -0.044334656249749804 -0.030416098420925824 0.13614661421177385 0.17169596953400237 0.11639574816204677 -0.013539643620163919 0.011701380594770754 -0.054113723569598253 0.13778292866648348 -0.044866095239021707 -0.024084553224754085 -0.006231112399879335 -0.012798687846977519 -0.036777648469757521 -0.052798673739539559 -0.022240340269764118 0.16821570846664946 0.10609294170300593 0.015085175655885318 -0.042101659091261817 0.054719180442223236 -0.02238804637271018 0.051676633429516131 0.044417134126640334 0.065565703415846444 0.048159509565274775
leaf_weight=12.656359747052191 1.9558749571442682 0.97736059874296222 80.579143472015858 13.943034604191778 118.24162628129125 7.0829285755753508 1.8421505205333204 1.3299451246857632 2.6311834491789332 236.81783112511039 12.956310838460922 5.4314423166215411 1.818307846784587 5.4567907936871096 1.6663703992962835 61.756630383431911 16.190373297780759 112.63553524017334 1.1489437781274316 134.78496810048819 1.3564833253622044 1.8802037350833405 194.06492564082146 6.1957946270704252 71.667268447577953 10.733750768005846 4.7966873347759247 55.836438074707985 9.9935620501637441 22.393396221101284
leaf_count=116 29 20 502 58 2742 62 28 20 39 3471 194 78 24 80 24 656 311 2290 23 2539 26 33 1848 37 355 69 24 310 61 195
internal_value=-0.000937008 -0.0218129 0.0240037 0.0275828 -0.0310527 0.0261355 -0.00865483 0.0222139 0.0117285 -0.011144 0.0271926 -0.00513732 0.0192735 -0.00385025 0.060378 0.00104713 -0.0252139 -0.0348954 0.0648098 -0.0180091 0.0113472 -0.000428276 0.0270134 0.0333493 0.0472854 0.0255209 -0.0011805 0.0292906 0.0205836 0.0185068
internal_weight=1210.82 659.122 551.7 477.287 387.215 463.344 271.906 20.2899 18.96 251.616 14.7985 16.3288 10.8973 8.94147 3.48468 74.413 268.974 114.762 2.1263 154.212 19.4271 18.0706 456.261 229.809 82.6598 147.149 10.9925 136.416 226.452 216.458
internal_count=16264 11971 4293 3521 7984 3463 3987 294 274 3693 222 235 157 128 48 772 5242 2333 43 2909 370 344 3401 1297 416 881 61 812 2104 2043
is_linear=0
shrinkage=0.05


Tree=18
num_leaves=31
num_cat=0
split_feature=52 52 58 58 58 0 15 17 52 10 50 8 27 51 27 10 40 15 51 51 21 33 45 45 53 17 48 10 27 48
split_gain=228.589 30.7984 15.9342 12.899 11.9476 9.72483 9.9004 11.1958 8.16913 10.385 8.0729 12.5242 9.14282 13.7364 8.76328 8.14095 10.8171 9.04474 7.88838 8.86608 12.31 12.2009 9.86417 8.76883 10.8411 9.59935 9.71446 8.96653 8.34544 7.69601
threshold=3.5000000000000004 11.500000000000002 0.16963540617536191 0.051961551961551972 0.56498978549540368 12.500000000000002 73.500000000000014 1.5000000000000002 5.5000000000000009 141.50000000000003 0.11736011477761839 1.5000000000000002 5.2083333333333348 0.065318976026005698 10.462500000000002 148.50000000000003 0.051315789473684217 143.50000000000003 0.18933143669985777 0.085166827852998075 5.5000000000000009 1.0000000180025095e-35 0.067424242424242428 0.075961538461538483 157.50000000000003 -1.0000000180025095e-35 0.19367341835458868 137.50000000000003 20.291666666666668 0.38167214311792635
decision_type=2 2 8 8 10 2 8 10 2 8 8 2 8 10 10 8 10 8 10 10 2 2 8 10 2 8 10 10 10 10
left_child=2 3 -1 -2 5 10 -7 -8 -5 -10 11 14 13 -13 15 16 17 -4 19 21 23 28 -23 25 -25 -21 -27 -26 -12 -17
right_child=1 -3 4 8 -6 6 7 -9 9 -11 18 12 -14 -15 -16 29 -18 -19 -20 20 -22 22 -24 24 27 26 -28 -29 -30 -31
leaf_value=0.00098949815339558194 -0.034082069269895772 -0.041736664411624692 0.055483259722459745 -0.0038761878272376617 0.071240855122181049 0.08851219763313567 0.018965094430669842 -0.014897258648606344 -0.0090249266036844765 -0.029787204658292727 0.025620295037744115 0.098997926544643219 -0.0034303057041175124 0.008790865093263418 0.0066330056932638395 0.02281753980870193 0.018121860303051487 0.1581693711325691 0.010418153545449818 0.16135373232390657 -0.016984921411670139 0.11960013242883293 0.045128799545188794 -0.003273999821323894 0.087824916868153136 0.088132462689047605 -0.020754308381910069 0.021583864567067443 -0.036352859657436759 0.10227764216126117
leaf_weight=74.452290378510952 77.865485217422247 141.84831369295716 3.6942032128572437 180.6027244925499 14.067436084151266 4.3370423689484587 116.40210400521755 30.886647120118141 141.26630802452564 104.98845167085528 69.749633975327015 6.0280321687459972 56.390188567340374 14.071542300283907 15.246767207980154 20.733745992183689 4.2707708850502959 5.1117146313190469 25.942486077547073 3.7338666990399361 5.2178039550781241 5.3733320385217693 25.78005088865757 8.0286051109433192 14.479988798499109 14.519696168601518 2.384807549417018 7.8936590850353232 5.8910950422286978 3.5722599178552619
leaf_count=772 1613 3370 26 2533 58 33 921 279 2511 1944 496 40 450 100 115 154 31 34 163 24 36 35 161 53 86 104 18 45 43 16
internal_value=-0.000915234 -0.0211522 0.022523 -0.015367 0.0258367 0.024477 0.0140565 0.0118641 -0.0119531 -0.0178767 0.0294438 0.0198072 0.00689018 0.0358447 0.0385804 0.0516103 0.0834215 0.115091 0.0360274 0.040102 0.0561659 0.0316396 0.0579736 0.063644 0.0465687 0.0887975 0.0727712 0.0644544 0.0207937 0.0344958
internal_weight=1204.83 646.571 558.26 504.723 483.807 469.74 151.626 147.289 426.857 246.255 318.114 129.119 76.4898 20.0996 52.6295 37.3827 13.0767 8.80592 188.995 163.053 56.2584 106.794 31.1534 51.0406 30.4023 20.6384 16.9045 22.3736 75.6407 24.306
internal_count=16264 11971 4293 8601 3521 3463 1233 1200 6988 4455 2230 966 590 140 376 261 91 60 1264 1101 366 735 196 330 184 146 122 131 539 170
is_linear=0
shrinkage=0.05


Tree=19
num_leaves=31
num_cat=0
split_feature=58 48 61 44 58 15 17 0 51 14 51 28 42 25 17 51 60 3 3 11 48 11 18 58 46 17 46 49 62 51
split_gain=76.7908 31.0294 17.1517 13.4565 13.1777 11.6393 10.9418 9.57517 9.31711 9.25054 9.0279 16.0916 9.12979 23.538 12.614 8.75046 8.71536 8.65678 8.43104 14.122 11.2317 10.6898 9.11922 9.88043 14.6766 8.56777 8.8382 9.08579 8.61669 11.6542
threshold=0.052700925925411604 0.067117117117117139 10.288852593449812 0.070197044334975381 0.26990602462300578 172.50000000000003 -2.4999999999999996 9.5000000000000018 0.15633729050279332 110.50000000000001 0.089647914274779958 3.4964285714285723 0.045983086680761107 2.5000000000000004 -13.499999999999998 0.051414221517314306 1.3035190097259066 1.5000000000000002 2.5000000000000004 114.50000000000001 0.10762548262548265 147.50000000000003 -0.50000000000000566 0.16963540617536191 0.030776515151515155 -6.4999999999999991 0.07577497129735937 0.070505385252692634 1.0000000180025095e-35 0.083566108007448806
decision_type=8 10 10 10 10 10 10 2 10 8 10 10 8 8 10 8 10 10 8 10 10 10 10 8 8 8 10 10 10 10
left_child=-1 2 3 7 5 18 8 -2 -4 -8 -5 12 13 14 -12 -9 -10 -14 19 -3 -21 22 23 24 -20 -25 -27 -28 29 -29
right_child=1 4 6 10 -6 -7 9 15 16 -11 11 -13 17 -15 -16 -17 -18 -19 21 20 -22 -23 -24 25 -26 26 27 28 -30 -31
leaf_value=-0.037106666855713615 0.0012161095772414035 -0.012282618543143407 0.021581316790668183 -0.0010862993401052545 0.036249670956854524 0.092524227004070411 0.099065917668025763 -0.0010056689039395631 0.026517305655477483 -0.015590749280991471 0.23593596037451908 0.14316288532168414 -0.014502365957791136 -0.053842873069543468 0.067816349866182055 -0.020719000436625997 0.13839257612043285 0.073940549675244729 0.093865035879682604 -0.020336721817631256 0.018293732428607937 0.11704161978427018 -0.015590906160221789 0.11555952875240071 -0.032687683937808361 0.013338258329548333 0.018363595227680194 0.16447038102982836 0.029413435557802705 0.059639501326815017
leaf_weight=130.44999627396464 110.61644696816802 92.048762138932943 50.630591120570898 57.710778664797544 54.069786515086889 4.2339319474995127 1.8780364766716982 74.287503287196159 3.4321891926228991 27.794804684817791 1.8625349290668962 2.9837315976619712 15.012484703212978 2.5496999882161617 2.7825837731361451 232.38856953009963 3.5325887203216553 3.3918604813516131 2.6811570823192623 22.067106612026691 127.71231800317764 2.6555440798401824 20.24514539912343 2.5482965260744095 15.743382051587103 85.402304124087095 24.118303414434195 3.6938942447304752 11.150250721722839 9.3922706730663759
leaf_count=3001 1314 1119 463 778 262 22 16 1291 29 281 22 37 189 41 33 3916 33 37 35 282 1255 16 238 25 205 920 219 28 89 68
internal_value=-0.00089139 0.00352954 -0.00413191 -0.0076782 0.0130046 0.0100381 0.0163322 -0.011395 0.02904 -0.00833397 0.0102952 0.0332751 0.0204671 0.0682242 0.135227 -0.0159438 0.0832613 0.00179737 0.00920552 0.00313017 0.0126023 0.0174766 0.0159655 0.0200944 -0.0142716 0.0247397 0.0230094 0.0400902 0.061711 0.0892306
internal_weight=1199.07 1068.62 590.854 503.586 477.762 423.693 87.2682 417.293 57.5954 29.6728 86.2937 28.5829 25.5992 7.19482 4.64512 306.676 6.96478 18.4043 419.459 241.828 149.779 177.631 174.975 154.73 18.4245 136.305 133.757 48.3547 24.2364 13.0862
internal_count=16264 13263 8480 7658 4783 4521 822 6521 525 297 1137 359 322 96 55 5207 62 226 4499 2656 1537 1843 1827 1589 240 1349 1324 404 185 96
is_linear=0
shrinkage=0.05


Tree=20
num_leaves=31
num_cat=0
split_feature=52 52 52 58 58 49 42 10 58 50 3 53 50 10 42 42 56 58 40 17 16 61 30 0 45 0 11 14 0 62
split_gain=187.805 31.3949 13.8365 12.4824 12.1223 11.9661 11.5502 19.5337 14.4114 11.0449 10.6878 10.5319 13.9039 9.78156 9.47608 9.33095 11.8176 9.45263 8.80281 8.80204 7.6553 7.65212 7.58779 8.87051 8.39995 12.2108 8.28627 7.53832 10.0277 8.88542
threshold=3.5000000000000004 8.5000000000000018 1.5000000000000002 0.030238889973965479 0.51414221517314318 0.09039836567926457 0.3257575757575758 137.50000000000003 0.061162102390222454 0.34166666666666673 1.0000000180025095e-35 159.50000000000003 0.15274177467597214 158.50000000000003 0.089858086616099841 0.087102421943390726 106.50000000000001 0.13698655842852026 0.26969696969696971 -9.4999999999999982 120.50000000000001 12.454564798071768 1.0000000180025095e-35 13.500000000000002 0.26846846846846856 18.500000000000004 128.50000000000003 146.50000000000003 5.5000000000000009 3.5000000000000004
decision_type=2 2 2 8 8 10 10 8 10 8 10 2 10 8 8 8 8 10 10 8 8 10 2 2 8 2 8 10 2 10
left_child=2 3 4 -2 9 11 14 8 10 18 -8 12 21 27 15 16 -5 19 -1 -18 -15 -4 24 -24 -13 26 -26 28 -6 -30
right_child=1 -3 5 6 13 -7 7 -9 -10 -11 -12 22 -14 20 -16 -17 17 -19 -20 -21 -22 -23 23 -25 25 -27 -28 -29 29 -31
leaf_value=0.032127522203876012 -0.049766018287206892 -0.032896777979701468 0.02934645515043002 0.13742616569147634 0.076211987748233179 0.00060485821631552604 0.12976018691817884 -0.0255399714586447 0.20542087829114619 -0.016668714695775948 -0.053964049397476482 -0.0073303389467767105 0.1004727942611692 0.0056685826021502508 -0.014941575452299689 0.13460622985891263 0.12023099780428748 0.11368803226857536 -0.036135891803653224 -0.0044897671761390994 0.052864724709323477 -0.057682964581832023 0.0096193514519409187 0.14104593103183738 -0.039956090703506891 0.10909977579199558 0.030629953569255554 -0.0093059095986730619 0.019398542535457711 0.072964261711782649
leaf_weight=44.416584439575672 18.7136768437922 243.81036970764399 92.606925889849663 1.5676178224384782 10.596440255641935 114.43472449854016 1.631310392171142 5.251055072993041 2.2811366245150566 23.6032954454422 1.5377794504165647 52.667193215340376 6.9006868600845328 9.6466412991285306 243.55444926396012 1.3255440369248379 1.4342023395001886 1.7712144218385208 5.2845312207937232 103.70793414860964 78.5808966755867 2.5965634062886229 2.9748720824718466 2.2586402148008347 5.5363519713282647 3.8878778889775267 16.697631549090147 13.709491461515425 78.330385431647301 8.5909317284822446
leaf_count=270 424 5707 856 24 51 1078 24 78 22 150 23 501 61 50 3881 20 21 22 27 1675 383 25 28 21 51 37 144 72 470 51
internal_value=4.83218e-05 -0.0188733 0.0207279 -0.00994102 0.0288817 0.0133283 -0.00789391 0.0432823 0.109589 0.0114945 0.0406092 0.021151 0.0319403 0.035272 -0.00944375 0.00275061 0.00113945 -0.000858855 0.0248693 -0.0027885 0.0477044 0.0269728 0.00803978 0.0663395 0.00416727 0.0273489 0.0130537 0.0254103 0.0302909 0.0246927
internal_weight=1199.91 626.586 573.321 382.776 272.759 300.561 364.062 10.7013 5.45023 73.3044 3.16909 186.127 102.104 199.455 353.361 109.807 108.481 106.913 49.7011 105.142 88.2275 95.2035 84.0226 5.23351 78.7891 26.1219 22.234 111.227 97.5178 86.9213
internal_count=16247 11921 4326 6214 1524 2802 5790 147 69 447 47 1724 942 1077 5643 1762 1742 1718 297 1696 433 881 782 49 733 232 195 644 572 521
is_linear=0
shrinkage=0.05


Tree=21
num_leaves=31
num_cat=0
split_feature=58 0 48 60 18 58 31 60 0 15 51 49 56 45 58 54 61 61 10 61 25 60 20 21 42 60 51 49 54 18
split_gain=55.2085 32.6327 17.2208 13.618 12.5394 11.67 10.6469 10.3613 9.12037 9.0251 9.74869 8.90249 9.45194 9.44024 8.85291 8.56862 8.3994 8.24636 12.288 7.97864 10.6269 7.55189 16.6173 15.0299 10.3354 7.07491 7.35604 10.7625 13.5141 8.50666
threshold=0.058394165561866114 9.5000000000000018 0.13898086828550407 1.2975230061349696 3.1500000000000008 0.44150325523371414 0.47727272727272735 1.3217461018288292 14.500000000000002 121.50000000000001 0.0613139992839241 0.028174603174603175 41.500000000000007 0.31414473684210531 0.013077046032279391 -1.3100961538461602 11.336766614127894 10.170496363332195 132.50000000000003 9.3289532048321053 1.0000000180025095e-35 1.7201000000000002 119.50000000000001 2.5000000000000004 0.24510489510489514 1.0760716472749543 0.091326105087572995 0.080540540540540564 7.8619047619047686 -3.7000000000000002
decision_type=8 2 10 10 10 10 10 10 2 10 8 10 8 8 10 2 10 10 10 8 8 10 8 2 10 8 8 10 2 10
left_child=14 5 3 8 17 6 -2 9 16 -8 -11 12 -4 25 -1 21 19 -5 -19 20 -3 24 23 -23 -16 -13 -27 -28 -29 -30
right_child=1 2 11 4 -6 -7 7 -9 -10 10 -12 13 -14 -15 15 -17 -18 18 -20 -21 -22 22 -24 -25 -26 26 27 28 29 -31
leaf_value=-0.050771175660568747 0.0096393646884042825 0.18158521815845896 0.08711329618988746 -0.028900757954601439 0.10454545392446971 0.05339980788110929 -0.034613966620138416 0.11914038752712891 -0.016164347277187067 0.10465372611260565 0.027348166177247019 0.091984796468033522 -0.0065467537922831547 0.040915910588011764 -0.022038005856803194 -0.034177723464982476 0.040434835282390863 0.04595221343603266 -0.026314113287369698 -0.0062111667234233531 0.016826508822958355 0.27449098222810947 -0.005301648618318831 0.0040424291414362231 0.11226394593906126 -0.015000665695515345 0.074068801002536586 -0.0076425350218846015 0.13528200465148851 0.013457111217874091
leaf_weight=38.453653313219547 305.69268237054348 1.2717779427766789 2.8036764785647392 9.6616398729383928 3.9538887590169898 19.218110322952271 5.2792030908167353 3.2730291411280623 259.78331406787038 4.4630105011165133 47.294240336865187 2.4840370193123809 68.683107487857342 35.622486282140017 26.387292753905061 57.207716397941113 11.022784449160097 19.916206374764446 8.3479384221136552 185.79349947348237 4.2470471076667309 1.221749730408191 5.2750814743340015 0.88645686581730831 1.5147536359727372 25.472606480121613 7.3427330069243899 27.116110667586327 2.9850961565971366 2.7558096796274185
leaf_count=1013 3051 19 20 130 39 81 49 29 4451 39 308 22 727 296 628 1297 84 180 97 2703 67 26 121 21 33 299 81 284 23 29
internal_value=2.77289e-05 0.0037964 -0.00279628 -0.00749102 0.0198105 0.0154214 0.0134272 0.0326267 -0.00996523 0.0276621 0.0340142 0.010704 -0.00287345 0.0200567 -0.0306083 -0.0222257 -0.00200603 0.0109766 0.024608 -0.00445134 0.0547941 -0.00284807 0.0421189 0.160773 -0.014747 0.00915445 0.00602142 0.0193421 0.007112 0.0768023
internal_weight=1195.43 1064.48 679.264 503.998 41.8797 385.22 366.002 60.3095 462.118 57.0365 51.7573 175.266 71.4868 103.779 130.947 92.4931 202.335 37.9258 28.2641 191.312 5.51883 35.2853 7.38329 2.10821 27.902 68.1564 65.6724 40.1997 32.857 5.74091
internal_count=16247 13108 9551 7770 446 3557 3476 425 7324 396 347 1781 747 1034 3139 2126 2873 407 277 2789 86 829 168 47 661 738 716 417 336 52
is_linear=0
shrinkage=0.05


Tree=22
num_leaves=31
num_cat=0
split_feature=58 48 58 31 10 19 20 27 13 64 50 64 27 58 12 63 53 41 54 50 63 50 58 9 45 58 54 27 16 18
split_gain=51.1904 24.2209 13.9532 11.2599 10.6799 10.981 9.56808 12.2072 33.3044 22.5739 9.50984 13.4568 9.44014 8.80308 8.49023 9.72477 9.97153 8.31998 8.13468 10.9204 9.98473 7.75367 12.4001 10.1061 9.08527 13.7757 8.94231 11.7654 13.0436 8.90615
threshold=0.058394165561866114 0.068337484433374854 0.1005530671465982 0.47727272727272735 97.500000000000014 8.5000000000000018 82.500000000000014 27.791666666666668 124.50000000000001 0.39230769230769241 0.1715728715728716 0.65476190476190488 24.791666666666668 0.013077046032279391 28.500000000000004 0.32051282051282054 156.50000000000003 0.26491228070175443 -1.3100961538461602 0.18795289855072467 0.4701754385964913 0.068597720380633706 0.15987220447284348 1.5000000000000002 0.07362240289069559 0.07538636578044354 1.0227272727272665 16.541666666666668 151.50000000000003 6.900000000000003
decision_type=8 10 10 10 10 2 10 10 10 10 10 10 10 10 8 10 2 8 2 10 10 10 10 2 10 8 2 8 8 10
left_child=13 2 4 12 17 6 7 10 -9 -10 -6 -12 21 -1 15 -8 -17 -2 19 -15 -21 -3 24 -24 25 -23 -26 -28 -29 -27
right_child=1 3 -4 -5 5 -7 14 8 9 -11 11 -13 -14 18 -16 16 -18 -19 -20 20 -22 22 23 -25 26 29 27 28 -30 -31
leaf_value=-0.050606351694093256 0.00084044847943583233 0.0039329650910519343 0.015057332458975798 0.02709589909290637 0.0052778418960942198 -0.017803938943885531 -0.022900924330099437 -0.011916280565098109 0.33693025081866501 0.068156263377560325 0.030714874174446405 0.1841465869992723 -0.013620556027860121 -0.010036544999484443 -0.014689137953920774 0.0038397936582158032 0.16412776161230155 -0.02120563755872296 -0.033516387681837775 0.020452720610051253 0.23762648461995003 0.16705633167459971 0.032933776015993177 0.10614891145010129 -0.012017932679073438 0.021033199131686286 -0.0090338488618452711 0.12088396052022927 0.025844649563122147 0.13702765060753444
leaf_weight=36.694390598684549 59.480562970042229 184.98148689046502 88.084290441125631 97.037338435649872 120.9280070848763 67.209540519863367 3.1373995505273333 4.5574237406253806 1.5333039015531542 1.5926919132471082 10.257279019802805 1.6603994071483619 44.4910230897367 32.996263105422258 67.006822928786278 1.7064866758883002 2.2490888088941574 152.56318991631269 55.464345473796129 1.3725825622677796 0.86139405518770207 1.8118845485150803 18.890105284750465 6.2802780941128722 44.365453734993935 38.019325222820044 20.132718089967966 4.3568595089018372 21.065985709428787 1.7301444336771954
leaf_count=1013 870 1936 824 715 1595 1101 47 70 25 26 136 21 552 778 979 27 26 2637 1297 32 19 29 112 35 457 447 199 42 184 16
internal_value=1.2373e-05 0.00359496 -0.00327513 0.0118699 -0.00654473 -0.000167182 0.00535565 0.0130216 0.0742978 0.19999 0.00947751 0.0520913 0.00804349 -0.0299425 -0.00918263 0.0428369 0.0949774 -0.0150215 -0.021582 -0.00279321 0.104192 0.0108648 0.0190502 0.0512017 0.0128952 0.0322278 0.0039597 0.0195199 0.0421321 0.026082
internal_weight=1192.52 1065.13 581.966 483.163 493.882 281.838 214.629 140.529 7.68342 3.126 132.846 11.9177 386.125 127.389 74.0998 7.09298 3.95558 212.044 90.6946 35.2302 2.23398 341.634 156.653 25.1704 131.482 41.5614 89.921 45.5556 25.4228 39.7495
internal_count=16247 13108 8384 4724 7560 4053 2952 1873 121 51 1752 157 4009 3139 1079 100 53 3507 2126 829 51 3457 1521 147 1374 492 882 425 226 463
is_linear=0
shrinkage=0.05


Tree=23
num_leaves=31
num_cat=0
split_feature=58 0 48 60 42 58 17 31 58 50 25 50 51 13 60 0 50 17 43 45 49 12 60 15 54 50 44 58 54 40
split_gain=47.4029 28.342 14.3238 11.682 10.2602 9.99775 9.04705 8.98244 8.75291 8.61847 9.82479 8.45621 8.71843 11.2079 11.2629 8.36035 11.5084 10.5732 13.176 10.2217 18.004 11.0674 8.28159 7.74182 7.73494 8.96758 7.67002 10.9467 10.5405 8.09159
threshold=0.058394165561866114 9.5000000000000018 0.13898086828550407 1.2975230061349696 0.17967164729754662 0.44150325523371414 47.500000000000007 0.47727272727272735 0.013077046032279391 0.21103238866396765 1.0000000180025095e-35 0.27888888888888896 0.07985507246376812 147.50000000000003 1.1000521376433789 14.500000000000002 0.092206477732793543 -10.499999999999998 0.13809523809523813 0.18274582560296851 0.17521929824561405 82.500000000000014 1.3217461018288292 121.50000000000001 -1.3100961538461602 0.18795289855072467 0.078461538461538485 0.18001814764404697 4.7905701754385897 0.054093567251461992
decision_type=8 2 10 10 10 10 10 10 10 10 10 8 10 10 8 2 10 10 10 8 8 8 10 10 2 10 8 10 2 8
left_child=8 5 3 15 -5 6 7 11 -1 26 -11 12 -2 14 -14 16 -3 -18 19 -19 21 -21 23 -9 25 -10 27 28 -4 -28
right_child=1 2 9 4 -6 -7 -8 22 24 10 -12 -13 13 -15 -16 -17 17 18 -20 20 -22 -23 -24 -25 -26 -27 29 -29 -30 -31
leaf_value=-0.050443864225687078 -0.0083343830857294781 -0.0097928197126726877 -0.046131174985319164 0.0069360955633326615 0.07270802125168839 0.049233481997743508 0.086272281552385296 -0.034007658271322731 -0.0096242093714259454 0.081749931318519098 -0.0053250324603811329 0.019552277722701579 0.10019482032448564 -0.022731999176107548 0.01616162955966052 -0.015458406019326959 -0.0038374489011589485 0.0046089494020001825 0.14302216910847404 0.11936425550565587 0.18540968433861579 -0.015069007067257223 0.10301294223631988 0.030112229972424451 -0.032851019092471505 0.089320977786693345 0.05061995061634398 0.071153262732652198 0.018952841236736018 0.007650011610789197
leaf_weight=35.014396660029888 101.38364608213305 139.63796700909734 19.66258201003075 35.591637749224901 7.1147784478962413 19.300114877521992 4.0899088419973841 5.1693629883229724 32.697254043072462 8.2773644924163801 5.3225751295685759 103.86735471710563 4.2065450213849536 18.368621058762074 76.535754077136517 255.46511932834983 32.046274486929178 17.686260011047132 2.6923814490437499 2.2569276802241776 2.4582941979169854 4.7598800808191299 3.5545315667986861 52.698480688035488 53.800960067659616 2.462404526770114 12.059798575937746 3.2586878836154929 9.0999467968940717 119.67921716719866
leaf_count=1013 1038 2040 271 383 63 81 38 48 778 68 43 1028 32 175 744 4451 457 226 30 26 31 63 29 344 1297 51 123 22 108 1146
internal_value=-4.25462e-06 0.00339824 -0.00278209 -0.00711472 0.0178935 0.0141505 0.0123199 0.011493 -0.0292673 0.00942502 0.0476716 0.00797319 0.00197457 0.0125199 0.0205396 -0.00945171 -0.00183776 0.0161078 0.0375178 0.0270596 0.0689662 0.0281709 0.0289346 0.0243844 -0.0209324 -0.00269459 0.00624872 -0.0156996 -0.0255398 0.0115836
internal_weight=1190.22 1066.24 677.07 499.71 42.7064 389.174 369.874 365.784 123.975 177.36 13.5999 304.362 200.495 99.1109 80.7423 457.003 201.538 61.9 29.8537 27.1614 9.4751 7.01681 61.4224 57.8678 88.9606 35.1597 163.76 32.0212 28.7625 131.739
internal_count=16247 13108 9551 7770 446 3557 3476 3438 3139 1781 111 3017 1989 951 776 7324 2873 833 376 346 120 89 421 392 2126 829 1670 401 379 1269
is_linear=0
shrinkage=0.05


Tree=24
num_leaves=31
num_cat=0
split_feature=52 52 58 58 52 44 58 13 43 48 62 60 19 43 60 44 41 17 11 11 10 17 13 29 12 50 45 58 50 45
split_gain=148.585 27.9512 13.2644 9.89793 8.11044 8.02477 7.9153 16.4065 7.8182 15.0702 7.80213 10.3671 7.6535 8.83566 8.8748 8.27742 10.2032 8.06055 10.0115 11.017 19.0608 12.7035 19.2645 8.3274 7.60695 7.60012 7.5222 7.32087 9.01754 8.21234
threshold=3.5000000000000004 11.500000000000002 0.16963540617536191 0.02787456500138771 1.5000000000000002 0.10818713450292398 0.063836584862925566 111.50000000000001 0.23443223443223446 0.30040650406504071 3.5000000000000004 1.1050862068965521 4.5000000000000009 0.29705882352941182 1.2953506944444446 0.044466403162055343 0.18983268983268986 47.500000000000007 113.50000000000001 120.50000000000001 135.50000000000003 8.5000000000000018 121.50000000000001 1.0000000180025095e-35 111.50000000000001 0.21103238866396765 0.084219858156028379 0.51414221517314318 0.28991596638655465 0.05634920634920635
decision_type=2 2 8 8 2 8 10 8 8 8 10 10 2 10 10 8 10 10 8 8 10 8 8 2 8 10 8 8 8 10
left_child=2 3 5 -2 27 -1 -5 26 9 -7 -9 -12 15 14 17 -6 -17 18 23 20 21 22 -20 25 -21 -14 -8 28 29 -4
right_child=1 -3 4 6 12 8 7 10 -10 -11 11 -13 13 -15 -16 16 -18 -19 19 24 -22 -23 -24 -25 -26 -27 -28 -29 -30 -31
leaf_value=-0.024642566629235557 -0.040156227893934526 -0.038854379983470494 0.057343560512655538 -0.013093113410378672 0.083158102106130338 0.0079003391720727217 0.17332385685856908 -0.0055212971094885342 0.002404342139887355 0.16622930309100317 0.16519854910437826 0.0087339998508488958 -0.03303765759145328 -0.024171863906313644 0.06852789163562549 0.0071717885081626492 0.081689641606661645 0.088355607863203456 -0.013409076799497261 -0.010121774647997562 0.19720383516297213 -0.026204674288961768 0.18760229519403582 0.050213233568079524 0.017954081245482569 0.069311348615052587 0.037821158052498444 0.031528404159323675 -0.014541117334950355 0.0094460406127667308
leaf_weight=24.913879238069057 29.367923993617296 121.71115747094154 13.595870837569235 378.82596059516072 7.3604053556919089 4.5958435647189608 1.9457272067666043 63.459310047328472 46.755070369690657 2.2332360371947289 1.5866102650761593 3.1817215755581856 25.152146160602577 16.716827169060707 7.1147031635045996 21.15980185568333 5.8673915937542906 3.3598139286041251 2.3287035226821891 31.135454788804054 2.1372788920998564 4.7223578691482535 2.4417530000209808 4.1734974682331076 107.16494580358267 1.954783797264098 2.1625562533736229 202.81073647737503 21.227644242346287 26.184247545897961
leaf_count=259 775 3331 73 6786 62 45 23 910 460 22 20 46 254 135 44 178 41 26 24 283 18 45 22 40 952 17 30 1077 118 131
internal_value=-1.69492e-05 -0.0174511 0.0179278 -0.01203 0.0208912 -0.00119734 -0.0101991 0.00495671 0.00970349 0.0596769 -0.000886486 0.0607959 0.0142965 0.0106904 0.0137308 0.0361507 0.023349 0.0116185 0.0101957 0.0155638 0.0623025 0.0319299 0.0894784 -0.0155341 0.0116334 -0.0256569 0.101997 0.0269602 0.0117739 0.0258162
internal_weight=1187.35 602.241 585.106 480.53 506.608 78.498 451.162 72.3359 53.5841 6.82908 68.2276 4.76833 242.79 208.402 191.685 34.3876 27.0272 184.571 181.211 149.93 11.6301 9.49281 4.77046 31.2804 138.3 27.1069 4.10828 263.818 61.0078 39.7801
internal_count=16247 11921 4326 8590 3540 786 7815 1029 527 67 976 66 2141 1860 1725 281 219 1681 1655 1344 109 91 46 311 1235 271 53 1399 322 204
is_linear=0
shrinkage=0.05


Tree=25
num_leaves=31
num_cat=0
split_feature=52 52 52 58 10 32 15 18 37 46 36 49 26 19 44 46 28 50 64 19 49 10 11 11 27 50 7 52 53 44
split_gain=122.961 26.5834 15.3214 12.4358 11.055 12.1374 8.17227 8.02003 9.30007 20.0308 17.4339 8.16242 7.89014 7.41755 6.93184 17.0915 7.2025 18.1143 11.6595 6.92933 8.82713 6.91047 7.9711 14.698 6.89401 6.865 9.57375 6.78467 6.49981 12.4064
threshold=5.5000000000000009 2.5000000000000004 11.500000000000002 0.24539914245796599 86.500000000000014 0.51666666666666672 120.50000000000001 -2.1316282072803005e-15 1.0000000180025095e-35 0.043961352657004842 0.17424242424242428 0.19504830917874399 0.90000000000000013 10.500000000000002 0.07417582417582419 0.26679841897233209 10.008928571428575 1.0000000180025095e-35 0.19090909090909094 9.5000000000000018 0.10676844783715014 115.50000000000001 74.500000000000014 67.500000000000014 30.658333333333339 0.1464191393506292 1.0000000180025095e-35 6.5000000000000009 153.50000000000003 0.26969696969696971
decision_type=2 2 2 8 10 10 8 8 8 10 8 10 10 2 8 10 10 8 10 2 10 10 10 8 10 8 2 2 2 10
left_child=1 3 4 -1 19 14 21 11 9 10 -9 -3 13 -8 15 -6 28 -18 -19 -2 -21 22 23 -5 -10 -24 -27 -20 29 -16
right_child=2 7 -4 6 5 -7 12 8 24 -11 -12 -13 -14 -15 16 -17 17 18 27 20 -22 -23 25 -25 -26 26 -28 -29 -30 -31
leaf_value=0.00047930151661497699 -0.03306637810295085 -0.033592788212270568 -0.038444000360974485 -0.0012972660169678447 -0.024694346566217405 -0.04043530048543563 0.025685522742208228 0.24210856965030381 0.0027418647452558762 -0.054810023837064896 0.034565777433521766 0.072785088844249765 0.095339889468863126 -0.038673520063361763 0.0082023393911308789 0.17533824378528387 0.22081944805258724 0.15669472857035893 0.069321498790151856 -0.016461883441897331 0.14255483471606742 -0.02030858475465179 -0.0079811836733429051 0.15495985733798506 -0.028396481497784593 -0.030610070358181696 0.056119339796281489 -0.052859964599861226 -0.010883724290940311 0.1314633861674053
leaf_weight=79.682731918990612 97.152476403862238 25.812733814120296 118.69527249038219 3.3136760964989653 47.753592688590288 27.664709009230137 300.09782069921494 1.8457613959908485 261.32689018547535 2.352830808609724 2.2396344728767872 1.9386868774890889 4.0078696236014357 4.544737495481967 35.980837948620319 1.0922972112894047 1.2775495313107956 1.1913956105709074 1.6249708719551561 2.7621979527175418 1.2758110240101812 17.866161212325096 25.341465026140213 2.7570999562740326 19.072789505124092 4.3067141920328149 12.18321917951107 3.7775179520249367 63.937916107475758 2.1642141602933398
leaf_count=624 2144 340 3368 23 943 527 1765 23 3406 31 30 22 26 34 712 19 24 23 26 60 23 130 184 19 260 28 78 76 1231 39
internal_value=-0.00108366 0.0106762 -0.0233297 0.0184154 -0.0170931 -0.00987228 0.0222325 -0.000495124 0.00198807 0.0614037 0.128333 -0.0261613 0.0256423 0.0247254 -0.00454787 -0.0202212 0.00241481 0.0484993 0.0151127 -0.0303989 0.0337795 0.00622998 0.0161281 0.0696684 0.000623834 0.00835809 0.033468 -0.01611 -0.00113869 0.0151957
internal_weight=1175.04 768.691 406.351 454.101 287.655 186.465 374.419 314.589 286.838 6.43823 4.0854 27.7514 308.65 304.643 158.8 48.8459 109.954 7.87143 6.59388 101.19 4.03801 65.7683 47.9022 6.07078 280.4 41.8314 16.4899 5.40249 102.083 38.1451
internal_count=16238 7023 9215 2911 5847 3620 2287 4112 3750 84 53 362 1825 1799 3093 962 2131 149 125 2227 83 462 332 42 3666 290 106 102 1982 751
is_linear=0
shrinkage=0.05


Tree=26
num_leaves=31
num_cat=0
split_feature=52 52 52 58 10 32 37 17 46 18 17 53 12 45 36 37 28 28 49 45 47 13 50 43 58 13 16 28 49 12
split_gain=112.665 23.6866 14.8961 11.0057 10.5071 11.6421 9.65263 15.0355 8.77495 7.39784 9.93591 12.0171 18.0691 8.59993 11.056 15.8606 10.9328 23.6088 7.29751 7.20722 9.30707 7.08398 6.98593 11.4392 8.79138 7.83561 9.47389 7.54947 7.44188 7.25441
threshold=5.5000000000000009 2.5000000000000004 11.500000000000002 0.24539914245796599 86.500000000000014 0.14835164835164838 1.0000000180025095e-35 23.500000000000004 0.26679841897233209 -2.1316282072803005e-15 -6.4999999999999991 163.50000000000003 114.50000000000001 0.14031250000000003 1.0000000180025095e-35 0.20714285714285716 -2.0035714285714286 -4.9874999999999989 0.19504830917874399 0.36451048951048953 0.088932806324110686 136.50000000000003 0.065952588081774691 0.34523809523809529 0.36968703020363541 94.500000000000014 120.50000000000001 11.937500000000002 0.16754385964912283 52.500000000000007
decision_type=2 2 2 8 10 10 8 8 10 8 8 2 8 10 8 8 8 10 10 10 10 10 8 10 10 8 8 10 10 10
left_child=1 3 4 -1 -2 6 7 -6 19 18 11 12 -11 14 15 -12 17 21 -3 20 -8 -15 23 24 27 -24 -27 28 -5 -30
right_child=2 9 -4 22 5 -7 8 -9 -10 10 13 -13 -14 16 -16 -17 -18 -19 -20 -21 -22 -23 25 -25 -26 26 -28 -29 29 -31
leaf_value=0.00045518997117042332 -0.029709382834357773 -0.032834413755943141 -0.037882305441373165 -0.010932128068092928 -0.011142319471924012 -0.025900168674403302 -0.0011129078315520607 0.17574795191832221 0.10396540527765692 0.027255333205264461 0.18448087810763852 -0.055003078865399901 0.2134671768901534 -0.054945095885881125 0.0035076959604849267 0.011965132956169701 -0.021288972516230149 0.18653265665760072 0.065246662016764087 0.09979375938239593 -0.048821899939257875 0.074360310028332113 0.089065923449118817 0.071583461260243994 0.060452768634805233 0.0013397143075447517 0.027200771894472838 0.072086499634608989 0.087162612416287574 -0.021676186697739769
leaf_weight=79.707706414163113 98.462102845311165 25.106607716530565 114.53848507814109 61.907702840864658 2.38411870226264 68.209753416478634 97.411483649164438 1.9616545438766477 1.8946852535009373 3.5999532043933868 2.070531003177166 1.7601525969803331 2.041551049798727 3.4092526771128178 203.63207313790917 3.7367329597473145 63.468022663146257 2.0644401386380196 2.0514201410114756 1.6302891932427872 11.420902770012615 1.5366264097392557 4.6306136399507514 6.5669885799288741 6.1063715666532508 41.316417269408703 247.8986432403326 3.2773268297314635 3.9905864000320426 2.4839818105101585
leaf_count=624 2227 340 3368 427 45 1331 1934 34 29 43 23 23 24 44 2696 49 806 24 22 28 219 18 34 34 27 279 1417 20 29 20
internal_value=-0.00105172 0.0100836 -0.0226658 0.0173401 -0.0165153 -0.00948975 0.00010168 0.0732188 -0.00272635 -0.000482013 0.00187572 0.0590555 0.0946418 0.000363757 0.0054477 0.0734742 -0.0147441 0.0445098 -0.0254257 -0.00455636 -0.0061195 -0.0147714 0.0208989 0.00821375 0.00286246 0.0245395 0.0235063 -0.00204502 -0.00559789 0.0454064
internal_weight=1170.28 772.364 397.913 457.886 283.375 184.913 116.703 4.34577 112.357 314.477 287.319 7.40166 5.6415 279.918 209.439 5.80726 70.4783 7.01032 27.158 110.463 108.832 4.94588 378.179 84.333 77.766 293.846 289.215 71.6596 68.3823 6.47457
internal_count=16238 7023 9215 2911 5847 3620 2289 79 2210 4112 3750 90 67 3660 2768 72 892 86 362 2181 2153 62 2287 557 523 1730 1696 496 476 49
is_linear=0
shrinkage=0.05


Tree=27
num_leaves=31
num_cat=0
split_feature=52 52 52 10 32 50 44 40 53 48 0 10 10 27 14 54 27 53 48 44 49 54 60 41 12 64 41 45 27 37
split_gain=103.163 21.1701 14.4703 9.97393 11.2114 9.82958 12.6836 9.38707 7.82199 17.3223 9.37441 17.7409 8.43597 7.63945 10.6848 8.99236 8.24937 10.5593 8.69677 8.19845 7.44982 7.44957 9.86537 8.32624 7.18085 7.08685 7.06484 6.79773 6.6684 8.58462
threshold=5.5000000000000009 2.5000000000000004 11.500000000000002 86.500000000000014 0.51666666666666672 0.060120481927710849 0.4188596491228071 0.40833333333333338 145.50000000000003 0.12970031099802096 8.5000000000000018 94.500000000000014 104.50000000000001 24.041666666666668 149.50000000000003 -3.6937499999999939 6.7166666666666677 156.50000000000003 0.13981718216168521 0.36931818181818188 0.11342195540308748 4.2696969696969811 1.0760716472749543 0.11483516483516486 100.50000000000001 0.67708333333333337 0.39565217391304358 0.097167584579071611 24.791666666666668 1.0000000180025095e-35
decision_type=2 2 2 10 10 8 10 10 2 8 2 10 10 10 8 2 8 2 10 10 8 2 10 8 8 8 8 10 10 8
left_child=1 5 3 7 -5 6 -1 -2 9 20 13 21 -11 14 15 -10 26 18 -18 -19 -7 -12 23 -23 -14 -17 -16 28 29 -3
right_child=2 27 -4 4 -6 8 -8 -9 10 12 11 -13 24 -15 16 25 17 19 -20 -21 -22 22 -24 -25 -26 -27 -28 -29 -30 -31
leaf_value=-0.00255148530450219 -0.030813414316660171 0.076249051135465207 -0.037312686323154688 -0.0040765596349547446 -0.039470955900102127 0.16151916690430546 0.072485815382443058 0.1069478903599614 -0.015842678520947947 -0.060848405609729074 0.035735910393845514 -0.0016463256077180197 -0.011228938720171893 -0.012011179114270583 0.015422857243722979 0.050078785060234755 0.023420203999911821 0.042091733039207102 -0.053907067119644728 0.1199373229295258 0.065851763698194538 -0.047737132950733063 -0.059259931145003386 0.048428020532909788 0.071566969806259054 0.10588886264351925 -0.037234074399128812 -0.010319596142086033 -0.01858455928036342 0.0067122102882502593
leaf_weight=90.233779326081276 94.599421299993992 4.5566382743418217 110.57386477850378 157.31325336545706 26.082943897694349 3.477361962199212 6.0063961446285239 1.2529394514858712 4.2296689525246611 2.9403318166732779 68.912510380148888 114.26031045615673 4.7044559270143482 10.998413458466528 28.057776935398579 28.314676500856876 15.227011613547804 32.174450270831585 4.7767102792859069 3.7795490324497214 4.9059633165597925 3.024461194872857 5.1185247749090186 8.8003423884510994 5.9068980738520631 7.1180501729249945 8.2407626956701261 112.62876936793327 26.067380018532276 171.12037711217999
leaf_count=635 2200 57 3368 3093 527 19 33 27 22 21 416 807 32 69 140 146 93 178 30 19 29 20 31 52 39 37 43 1436 358 2261
internal_value=-0.0010204 0.00952624 -0.0220038 -0.0159419 -0.00911042 0.0163463 0.00213163 -0.0290127 0.0200947 0.0490415 0.0182437 0.0112586 0.0140941 0.0280245 0.0313624 0.0530648 0.0220321 0.0340741 0.00495514 0.050275 0.105534 0.0284329 -0.00127008 0.0238316 0.0348601 0.0612904 0.00346829 -0.000479363 0.00501419 0.00851583
internal_weight=1165.4 775.582 389.822 279.249 183.396 461.208 96.2402 95.8524 364.968 21.935 343.033 200.116 13.5517 142.917 131.919 39.6624 92.2563 55.9577 20.0037 35.954 8.38333 85.8558 16.9433 11.8248 10.6114 35.4327 36.2985 314.373 201.744 175.677
internal_count=16238 7023 9215 5847 3620 2911 668 2227 2243 140 2103 1326 92 777 708 205 503 320 123 197 48 519 103 72 71 183 183 4112 2676 2318
is_linear=0
shrinkage=0.05


Tree=28
num_leaves=31
num_cat=0
split_feature=52 52 52 61 10 17 42 13 48 15 50 39 41 19 48 53 10 58 52 50 44 27 15 61 26 12 40 26 3 17
split_gain=94.4378 18.8887 14.0436 9.595 9.48583 9.9388 9.8077 11.1095 13.4074 12.5611 9.67122 9.26894 10.3129 8.38723 12.9788 12.6181 18.9771 11.0407 9.13379 8.2115 8.79638 8.70869 7.93089 7.53885 13.9437 9.68809 7.45105 7.1371 6.91632 8.33255
threshold=5.5000000000000009 2.5000000000000004 11.500000000000002 10.219674862121439 146.50000000000003 12.500000000000002 0.30717948717948723 145.50000000000003 0.091372912801484255 145.50000000000003 0.10547710740265299 1.0000000180025095e-35 0.28869047619047622 5.5000000000000009 0.50609756097560987 149.50000000000003 106.50000000000001 0.095556639109099853 9.5000000000000018 0.064309346567411094 0.4188596491228071 24.791666666666668 100.50000000000001 8.934001258455103 0.63333333333333341 39.500000000000007 0.19586530264279628 0.90000000000000013 1.0000000180025095e-35 31.500000000000004
decision_type=2 2 2 8 8 8 10 10 10 8 8 8 8 2 8 2 10 8 2 8 10 10 8 10 10 8 10 10 10 10
left_child=1 3 4 -1 5 -2 7 11 9 -9 -8 12 -7 14 22 16 -16 -17 -19 20 -5 27 -13 -4 25 -25 -27 -21 29 -23
right_child=2 -3 23 19 -6 6 10 8 -10 -11 -12 13 -14 -15 15 17 -18 18 -20 21 -22 28 -24 24 -26 26 -28 -29 -30 -31
leaf_value=-0.035425523940510656 -0.024515520642486601 -0.00045914480267060488 -0.0412740817526078 -0.00028505998029228723 -0.027212335061607501 -0.0066123917440935875 0.18049283930190368 0.046032977784819296 -0.022580586619490074 0.29581026045944964 -0.011036023237292589 0.1037408581408736 0.15310042457427475 -0.014815953317996667 -0.00021794192112451207 -0.052545058040143422 0.29330581550539486 0.033851000760749338 0.19844519230304214 0.021264022107072063 0.05983822156625699 -0.005513113502300708 -0.02848601408426259 0.16969802907787609 0.20694102283947671 -0.040183952161718502 0.10798431855829123 0.080968681046486912 -0.036937675742157644 0.083236890739347882
